digraph Tree {
node [shape=box] ;
0 [label="duration <= 559.5\ngini = 0.207\nsamples = 25317\nvalue = [22356, 2961]\nclass = not_buy"] ;
1 [label="duration <= 205.5\ngini = 0.148\nsamples = 22898\nvalue = [21054, 1844]\nclass = not_buy"] ;
0 -> 1 [labeldistance=2.5, labelangle=45, headlabel="True"] ;
2 [label="duration <= 124.5\ngini = 0.072\nsamples = 14245\nvalue = [13709, 536]\nclass = not_buy"] ;
1 -> 2 ;
3 [label="duration <= 77.5\ngini = 0.028\nsamples = 8210\nvalue = [8092, 118]\nclass = not_buy"] ;
2 -> 3 ;
4 [label="duration <= 60.5\ngini = 0.007\nsamples = 4006\nvalue = [3992, 14]\nclass = not_buy"] ;
3 -> 4 ;
5 [label="duration <= 34.5\ngini = 0.003\nsamples = 2632\nvalue = [2628, 4]\nclass = not_buy"] ;
4 -> 5 ;
6 [label="duration <= 33.5\ngini = 0.006\nsamples = 1277\nvalue = [1273, 4]\nclass = not_buy"] ;
5 -> 6 ;
7 [label="balance <= 372.5\ngini = 0.005\nsamples = 1237\nvalue = [1234, 3]\nclass = not_buy"] ;
6 -> 7 ;
8 [label="balance <= 371.5\ngini = 0.01\nsamples = 620\nvalue = [617, 3]\nclass = not_buy"] ;
7 -> 8 ;
9 [label="balance <= 336.0\ngini = 0.006\nsamples = 618\nvalue = [616, 2]\nclass = not_buy"] ;
8 -> 9 ;
10 [label="duration <= 24.5\ngini = 0.003\nsamples = 587\nvalue = [586, 1]\nclass = not_buy"] ;
9 -> 10 ;
11 [label="gini = 0.0\nsamples = 438\nvalue = [438, 0]\nclass = not_buy"] ;
10 -> 11 ;
12 [label="duration <= 25.5\ngini = 0.013\nsamples = 149\nvalue = [148, 1]\nclass = not_buy"] ;
10 -> 12 ;
13 [label="balance <= 50.5\ngini = 0.105\nsamples = 18\nvalue = [17, 1]\nclass = not_buy"] ;
12 -> 13 ;
14 [label="balance <= 29.5\ngini = 0.278\nsamples = 6\nvalue = [5, 1]\nclass = not_buy"] ;
13 -> 14 ;
15 [label="gini = 0.0\nsamples = 5\nvalue = [5, 0]\nclass = not_buy"] ;
14 -> 15 ;
16 [label="gini = 0.0\nsamples = 1\nvalue = [0, 1]\nclass = buy"] ;
14 -> 16 ;
17 [label="gini = 0.0\nsamples = 12\nvalue = [12, 0]\nclass = not_buy"] ;
13 -> 17 ;
18 [label="gini = 0.0\nsamples = 131\nvalue = [131, 0]\nclass = not_buy"] ;
12 -> 18 ;
19 [label="balance <= 337.5\ngini = 0.062\nsamples = 31\nvalue = [30, 1]\nclass = not_buy"] ;
9 -> 19 ;
20 [label="gini = 0.0\nsamples = 1\nvalue = [0, 1]\nclass = buy"] ;
19 -> 20 ;
21 [label="gini = 0.0\nsamples = 30\nvalue = [30, 0]\nclass = not_buy"] ;
19 -> 21 ;
22 [label="duration <= 16.0\ngini = 0.5\nsamples = 2\nvalue = [1, 1]\nclass = not_buy"] ;
8 -> 22 ;
23 [label="gini = 0.0\nsamples = 1\nvalue = [0, 1]\nclass = buy"] ;
22 -> 23 ;
24 [label="gini = 0.0\nsamples = 1\nvalue = [1, 0]\nclass = not_buy"] ;
22 -> 24 ;
25 [label="gini = 0.0\nsamples = 617\nvalue = [617, 0]\nclass = not_buy"] ;
7 -> 25 ;
26 [label="balance <= 605.0\ngini = 0.049\nsamples = 40\nvalue = [39, 1]\nclass = not_buy"] ;
6 -> 26 ;
27 [label="gini = 0.0\nsamples = 25\nvalue = [25, 0]\nclass = not_buy"] ;
26 -> 27 ;
28 [label="balance <= 641.5\ngini = 0.124\nsamples = 15\nvalue = [14, 1]\nclass = not_buy"] ;
26 -> 28 ;
29 [label="gini = 0.0\nsamples = 1\nvalue = [0, 1]\nclass = buy"] ;
28 -> 29 ;
30 [label="gini = 0.0\nsamples = 14\nvalue = [14, 0]\nclass = not_buy"] ;
28 -> 30 ;
31 [label="gini = 0.0\nsamples = 1355\nvalue = [1355, 0]\nclass = not_buy"] ;
5 -> 31 ;
32 [label="duration <= 63.5\ngini = 0.014\nsamples = 1374\nvalue = [1364, 10]\nclass = not_buy"] ;
4 -> 32 ;
33 [label="balance <= 299.5\ngini = 0.038\nsamples = 209\nvalue = [205, 4]\nclass = not_buy"] ;
32 -> 33 ;
34 [label="gini = 0.0\nsamples = 92\nvalue = [92, 0]\nclass = not_buy"] ;
33 -> 34 ;
35 [label="balance <= 308.5\ngini = 0.066\nsamples = 117\nvalue = [113, 4]\nclass = not_buy"] ;
33 -> 35 ;
36 [label="gini = 0.0\nsamples = 1\nvalue = [0, 1]\nclass = buy"] ;
35 -> 36 ;
37 [label="duration <= 62.5\ngini = 0.05\nsamples = 116\nvalue = [113, 3]\nclass = not_buy"] ;
35 -> 37 ;
38 [label="gini = 0.0\nsamples = 73\nvalue = [73, 0]\nclass = not_buy"] ;
37 -> 38 ;
39 [label="balance <= 1419.0\ngini = 0.13\nsamples = 43\nvalue = [40, 3]\nclass = not_buy"] ;
37 -> 39 ;
40 [label="balance <= 1353.5\ngini = 0.219\nsamples = 24\nvalue = [21, 3]\nclass = not_buy"] ;
39 -> 40 ;
41 [label="balance <= 481.5\ngini = 0.159\nsamples = 23\nvalue = [21, 2]\nclass = not_buy"] ;
40 -> 41 ;
42 [label="gini = 0.0\nsamples = 11\nvalue = [11, 0]\nclass = not_buy"] ;
41 -> 42 ;
43 [label="balance <= 630.5\ngini = 0.278\nsamples = 12\nvalue = [10, 2]\nclass = not_buy"] ;
41 -> 43 ;
44 [label="gini = 0.0\nsamples = 2\nvalue = [0, 2]\nclass = buy"] ;
43 -> 44 ;
45 [label="gini = 0.0\nsamples = 10\nvalue = [10, 0]\nclass = not_buy"] ;
43 -> 45 ;
46 [label="gini = 0.0\nsamples = 1\nvalue = [0, 1]\nclass = buy"] ;
40 -> 46 ;
47 [label="gini = 0.0\nsamples = 19\nvalue = [19, 0]\nclass = not_buy"] ;
39 -> 47 ;
48 [label="balance <= 9345.0\ngini = 0.01\nsamples = 1165\nvalue = [1159, 6]\nclass = not_buy"] ;
32 -> 48 ;
49 [label="duration <= 74.5\ngini = 0.009\nsamples = 1136\nvalue = [1131, 5]\nclass = not_buy"] ;
48 -> 49 ;
50 [label="balance <= 983.5\ngini = 0.004\nsamples = 899\nvalue = [897, 2]\nclass = not_buy"] ;
49 -> 50 ;
51 [label="gini = 0.0\nsamples = 622\nvalue = [622, 0]\nclass = not_buy"] ;
50 -> 51 ;
52 [label="balance <= 997.5\ngini = 0.014\nsamples = 277\nvalue = [275, 2]\nclass = not_buy"] ;
50 -> 52 ;
53 [label="gini = 0.0\nsamples = 1\nvalue = [0, 1]\nclass = buy"] ;
52 -> 53 ;
54 [label="balance <= 2551.0\ngini = 0.007\nsamples = 276\nvalue = [275, 1]\nclass = not_buy"] ;
52 -> 54 ;
55 [label="gini = 0.0\nsamples = 165\nvalue = [165, 0]\nclass = not_buy"] ;
54 -> 55 ;
56 [label="balance <= 2562.5\ngini = 0.018\nsamples = 111\nvalue = [110, 1]\nclass = not_buy"] ;
54 -> 56 ;
57 [label="duration <= 71.5\ngini = 0.5\nsamples = 2\nvalue = [1, 1]\nclass = not_buy"] ;
56 -> 57 ;
58 [label="gini = 0.0\nsamples = 1\nvalue = [0, 1]\nclass = buy"] ;
57 -> 58 ;
59 [label="gini = 0.0\nsamples = 1\nvalue = [1, 0]\nclass = not_buy"] ;
57 -> 59 ;
60 [label="gini = 0.0\nsamples = 109\nvalue = [109, 0]\nclass = not_buy"] ;
56 -> 60 ;
61 [label="duration <= 75.5\ngini = 0.025\nsamples = 237\nvalue = [234, 3]\nclass = not_buy"] ;
49 -> 61 ;
62 [label="balance <= 2118.0\ngini = 0.057\nsamples = 68\nvalue = [66, 2]\nclass = not_buy"] ;
61 -> 62 ;
63 [label="balance <= 198.0\ngini = 0.036\nsamples = 54\nvalue = [53, 1]\nclass = not_buy"] ;
62 -> 63 ;
64 [label="balance <= 180.0\ngini = 0.083\nsamples = 23\nvalue = [22, 1]\nclass = not_buy"] ;
63 -> 64 ;
65 [label="gini = 0.0\nsamples = 22\nvalue = [22, 0]\nclass = not_buy"] ;
64 -> 65 ;
66 [label="gini = 0.0\nsamples = 1\nvalue = [0, 1]\nclass = buy"] ;
64 -> 66 ;
67 [label="gini = 0.0\nsamples = 31\nvalue = [31, 0]\nclass = not_buy"] ;
63 -> 67 ;
68 [label="balance <= 2273.0\ngini = 0.133\nsamples = 14\nvalue = [13, 1]\nclass = not_buy"] ;
62 -> 68 ;
69 [label="gini = 0.0\nsamples = 1\nvalue = [0, 1]\nclass = buy"] ;
68 -> 69 ;
70 [label="gini = 0.0\nsamples = 13\nvalue = [13, 0]\nclass = not_buy"] ;
68 -> 70 ;
71 [label="balance <= 14.0\ngini = 0.012\nsamples = 169\nvalue = [168, 1]\nclass = not_buy"] ;
61 -> 71 ;
72 [label="balance <= 12.5\ngini = 0.064\nsamples = 30\nvalue = [29, 1]\nclass = not_buy"] ;
71 -> 72 ;
73 [label="gini = 0.0\nsamples = 29\nvalue = [29, 0]\nclass = not_buy"] ;
72 -> 73 ;
74 [label="gini = 0.0\nsamples = 1\nvalue = [0, 1]\nclass = buy"] ;
72 -> 74 ;
75 [label="gini = 0.0\nsamples = 139\nvalue = [139, 0]\nclass = not_buy"] ;
71 -> 75 ;
76 [label="balance <= 9497.5\ngini = 0.067\nsamples = 29\nvalue = [28, 1]\nclass = not_buy"] ;
48 -> 76 ;
77 [label="gini = 0.0\nsamples = 1\nvalue = [0, 1]\nclass = buy"] ;
76 -> 77 ;
78 [label="gini = 0.0\nsamples = 28\nvalue = [28, 0]\nclass = not_buy"] ;
76 -> 78 ;
79 [label="balance <= 196.5\ngini = 0.048\nsamples = 4204\nvalue = [4100, 104]\nclass = not_buy"] ;
3 -> 79 ;
80 [label="duration <= 115.5\ngini = 0.029\nsamples = 1542\nvalue = [1519, 23]\nclass = not_buy"] ;
79 -> 80 ;
81 [label="duration <= 107.5\ngini = 0.021\nsamples = 1223\nvalue = [1210, 13]\nclass = not_buy"] ;
80 -> 81 ;
82 [label="duration <= 92.5\ngini = 0.027\nsamples = 955\nvalue = [942, 13]\nclass = not_buy"] ;
81 -> 82 ;
83 [label="duration <= 80.5\ngini = 0.008\nsamples = 479\nvalue = [477, 2]\nclass = not_buy"] ;
82 -> 83 ;
84 [label="balance <= 26.5\ngini = 0.04\nsamples = 97\nvalue = [95, 2]\nclass = not_buy"] ;
83 -> 84 ;
85 [label="balance <= 25.0\ngini = 0.067\nsamples = 58\nvalue = [56, 2]\nclass = not_buy"] ;
84 -> 85 ;
86 [label="duration <= 79.5\ngini = 0.034\nsamples = 57\nvalue = [56, 1]\nclass = not_buy"] ;
85 -> 86 ;
87 [label="gini = 0.0\nsamples = 38\nvalue = [38, 0]\nclass = not_buy"] ;
86 -> 87 ;
88 [label="balance <= -6.0\ngini = 0.1\nsamples = 19\nvalue = [18, 1]\nclass = not_buy"] ;
86 -> 88 ;
89 [label="gini = 0.0\nsamples = 7\nvalue = [7, 0]\nclass = not_buy"] ;
88 -> 89 ;
90 [label="balance <= 0.5\ngini = 0.153\nsamples = 12\nvalue = [11, 1]\nclass = not_buy"] ;
88 -> 90 ;
91 [label="gini = 0.278\nsamples = 6\nvalue = [5, 1]\nclass = not_buy"] ;
90 -> 91 ;
92 [label="gini = 0.0\nsamples = 6\nvalue = [6, 0]\nclass = not_buy"] ;
90 -> 92 ;
93 [label="gini = 0.0\nsamples = 1\nvalue = [0, 1]\nclass = buy"] ;
85 -> 93 ;
94 [label="gini = 0.0\nsamples = 39\nvalue = [39, 0]\nclass = not_buy"] ;
84 -> 94 ;
95 [label="gini = 0.0\nsamples = 382\nvalue = [382, 0]\nclass = not_buy"] ;
83 -> 95 ;
96 [label="balance <= 9.0\ngini = 0.045\nsamples = 476\nvalue = [465, 11]\nclass = not_buy"] ;
82 -> 96 ;
97 [label="balance <= 5.5\ngini = 0.07\nsamples = 247\nvalue = [238, 9]\nclass = not_buy"] ;
96 -> 97 ;
98 [label="balance <= -68.0\ngini = 0.057\nsamples = 237\nvalue = [230, 7]\nclass = not_buy"] ;
97 -> 98 ;
99 [label="gini = 0.0\nsamples = 92\nvalue = [92, 0]\nclass = not_buy"] ;
98 -> 99 ;
100 [label="balance <= -58.0\ngini = 0.092\nsamples = 145\nvalue = [138, 7]\nclass = not_buy"] ;
98 -> 100 ;
101 [label="gini = 0.0\nsamples = 1\nvalue = [0, 1]\nclass = buy"] ;
100 -> 101 ;
102 [label="balance <= -32.5\ngini = 0.08\nsamples = 144\nvalue = [138, 6]\nclass = not_buy"] ;
100 -> 102 ;
103 [label="balance <= -39.0\ngini = 0.444\nsamples = 3\nvalue = [2, 1]\nclass = not_buy"] ;
102 -> 103 ;
104 [label="gini = 0.0\nsamples = 2\nvalue = [2, 0]\nclass = not_buy"] ;
103 -> 104 ;
105 [label="gini = 0.0\nsamples = 1\nvalue = [0, 1]\nclass = buy"] ;
103 -> 105 ;
106 [label="duration <= 99.5\ngini = 0.068\nsamples = 141\nvalue = [136, 5]\nclass = not_buy"] ;
102 -> 106 ;
107 [label="duration <= 95.5\ngini = 0.121\nsamples = 62\nvalue = [58, 4]\nclass = not_buy"] ;
106 -> 107 ;
108 [label="gini = 0.0\nsamples = 26\nvalue = [26, 0]\nclass = not_buy"] ;
107 -> 108 ;
109 [label="duration <= 97.5\ngini = 0.198\nsamples = 36\nvalue = [32, 4]\nclass = not_buy"] ;
107 -> 109 ;
110 [label="balance <= 1.5\ngini = 0.245\nsamples = 21\nvalue = [18, 3]\nclass = not_buy"] ;
109 -> 110 ;
111 [label="balance <= -15.5\ngini = 0.266\nsamples = 19\nvalue = [16, 3]\nclass = not_buy"] ;
110 -> 111 ;
112 [label="gini = 0.0\nsamples = 1\nvalue = [1, 0]\nclass = not_buy"] ;
111 -> 112 ;
113 [label="duration <= 96.5\ngini = 0.278\nsamples = 18\nvalue = [15, 3]\nclass = not_buy"] ;
111 -> 113 ;
114 [label="gini = 0.245\nsamples = 7\nvalue = [6, 1]\nclass = not_buy"] ;
113 -> 114 ;
115 [label="gini = 0.298\nsamples = 11\nvalue = [9, 2]\nclass = not_buy"] ;
113 -> 115 ;
116 [label="gini = 0.0\nsamples = 2\nvalue = [2, 0]\nclass = not_buy"] ;
110 -> 116 ;
117 [label="duration <= 98.5\ngini = 0.124\nsamples = 15\nvalue = [14, 1]\nclass = not_buy"] ;
109 -> 117 ;
118 [label="gini = 0.0\nsamples = 6\nvalue = [6, 0]\nclass = not_buy"] ;
117 -> 118 ;
119 [label="balance <= -0.5\ngini = 0.198\nsamples = 9\nvalue = [8, 1]\nclass = not_buy"] ;
117 -> 119 ;
120 [label="gini = 0.0\nsamples = 1\nvalue = [1, 0]\nclass = not_buy"] ;
119 -> 120 ;
121 [label="gini = 0.219\nsamples = 8\nvalue = [7, 1]\nclass = not_buy"] ;
119 -> 121 ;
122 [label="duration <= 106.5\ngini = 0.025\nsamples = 79\nvalue = [78, 1]\nclass = not_buy"] ;
106 -> 122 ;
123 [label="gini = 0.0\nsamples = 68\nvalue = [68, 0]\nclass = not_buy"] ;
122 -> 123 ;
124 [label="gini = 0.165\nsamples = 11\nvalue = [10, 1]\nclass = not_buy"] ;
122 -> 124 ;
125 [label="duration <= 102.5\ngini = 0.32\nsamples = 10\nvalue = [8, 2]\nclass = not_buy"] ;
97 -> 125 ;
126 [label="duration <= 94.0\ngini = 0.198\nsamples = 9\nvalue = [8, 1]\nclass = not_buy"] ;
125 -> 126 ;
127 [label="gini = 0.5\nsamples = 2\nvalue = [1, 1]\nclass = not_buy"] ;
126 -> 127 ;
128 [label="gini = 0.0\nsamples = 7\nvalue = [7, 0]\nclass = not_buy"] ;
126 -> 128 ;
129 [label="gini = 0.0\nsamples = 1\nvalue = [0, 1]\nclass = buy"] ;
125 -> 129 ;
130 [label="balance <= 81.5\ngini = 0.017\nsamples = 229\nvalue = [227, 2]\nclass = not_buy"] ;
96 -> 130 ;
131 [label="gini = 0.0\nsamples = 111\nvalue = [111, 0]\nclass = not_buy"] ;
130 -> 131 ;
132 [label="balance <= 84.0\ngini = 0.033\nsamples = 118\nvalue = [116, 2]\nclass = not_buy"] ;
130 -> 132 ;
133 [label="gini = 0.0\nsamples = 1\nvalue = [0, 1]\nclass = buy"] ;
132 -> 133 ;
134 [label="duration <= 97.5\ngini = 0.017\nsamples = 117\nvalue = [116, 1]\nclass = not_buy"] ;
132 -> 134 ;
135 [label="duration <= 96.5\ngini = 0.049\nsamples = 40\nvalue = [39, 1]\nclass = not_buy"] ;
134 -> 135 ;
136 [label="gini = 0.0\nsamples = 31\nvalue = [31, 0]\nclass = not_buy"] ;
135 -> 136 ;
137 [label="balance <= 155.5\ngini = 0.198\nsamples = 9\nvalue = [8, 1]\nclass = not_buy"] ;
135 -> 137 ;
138 [label="balance <= 137.0\ngini = 0.375\nsamples = 4\nvalue = [3, 1]\nclass = not_buy"] ;
137 -> 138 ;
139 [label="gini = 0.0\nsamples = 2\nvalue = [2, 0]\nclass = not_buy"] ;
138 -> 139 ;
140 [label="gini = 0.5\nsamples = 2\nvalue = [1, 1]\nclass = not_buy"] ;
138 -> 140 ;
141 [label="gini = 0.0\nsamples = 5\nvalue = [5, 0]\nclass = not_buy"] ;
137 -> 141 ;
142 [label="gini = 0.0\nsamples = 77\nvalue = [77, 0]\nclass = not_buy"] ;
134 -> 142 ;
143 [label="gini = 0.0\nsamples = 268\nvalue = [268, 0]\nclass = not_buy"] ;
81 -> 143 ;
144 [label="balance <= 115.0\ngini = 0.061\nsamples = 319\nvalue = [309, 10]\nclass = not_buy"] ;
80 -> 144 ;
145 [label="balance <= 5.5\ngini = 0.036\nsamples = 272\nvalue = [267, 5]\nclass = not_buy"] ;
144 -> 145 ;
146 [label="duration <= 116.5\ngini = 0.012\nsamples = 167\nvalue = [166, 1]\nclass = not_buy"] ;
145 -> 146 ;
147 [label="balance <= -41.5\ngini = 0.133\nsamples = 14\nvalue = [13, 1]\nclass = not_buy"] ;
146 -> 147 ;
148 [label="gini = 0.0\nsamples = 7\nvalue = [7, 0]\nclass = not_buy"] ;
147 -> 148 ;
149 [label="balance <= 0.5\ngini = 0.245\nsamples = 7\nvalue = [6, 1]\nclass = not_buy"] ;
147 -> 149 ;
150 [label="gini = 0.278\nsamples = 6\nvalue = [5, 1]\nclass = not_buy"] ;
149 -> 150 ;
151 [label="gini = 0.0\nsamples = 1\nvalue = [1, 0]\nclass = not_buy"] ;
149 -> 151 ;
152 [label="gini = 0.0\nsamples = 153\nvalue = [153, 0]\nclass = not_buy"] ;
146 -> 152 ;
153 [label="balance <= 6.5\ngini = 0.073\nsamples = 105\nvalue = [101, 4]\nclass = not_buy"] ;
145 -> 153 ;
154 [label="duration <= 121.5\ngini = 0.5\nsamples = 2\nvalue = [1, 1]\nclass = not_buy"] ;
153 -> 154 ;
155 [label="gini = 0.0\nsamples = 1\nvalue = [0, 1]\nclass = buy"] ;
154 -> 155 ;
156 [label="gini = 0.0\nsamples = 1\nvalue = [1, 0]\nclass = not_buy"] ;
154 -> 156 ;
157 [label="duration <= 120.5\ngini = 0.057\nsamples = 103\nvalue = [100, 3]\nclass = not_buy"] ;
153 -> 157 ;
158 [label="balance <= 69.5\ngini = 0.103\nsamples = 55\nvalue = [52, 3]\nclass = not_buy"] ;
157 -> 158 ;
159 [label="balance <= 68.5\ngini = 0.18\nsamples = 30\nvalue = [27, 3]\nclass = not_buy"] ;
158 -> 159 ;
160 [label="balance <= 23.5\ngini = 0.128\nsamples = 29\nvalue = [27, 2]\nclass = not_buy"] ;
159 -> 160 ;
161 [label="gini = 0.0\nsamples = 11\nvalue = [11, 0]\nclass = not_buy"] ;
160 -> 161 ;
162 [label="balance <= 25.5\ngini = 0.198\nsamples = 18\nvalue = [16, 2]\nclass = not_buy"] ;
160 -> 162 ;
163 [label="gini = 0.0\nsamples = 1\nvalue = [0, 1]\nclass = buy"] ;
162 -> 163 ;
164 [label="balance <= 44.5\ngini = 0.111\nsamples = 17\nvalue = [16, 1]\nclass = not_buy"] ;
162 -> 164 ;
165 [label="gini = 0.0\nsamples = 8\nvalue = [8, 0]\nclass = not_buy"] ;
164 -> 165 ;
166 [label="balance <= 47.5\ngini = 0.198\nsamples = 9\nvalue = [8, 1]\nclass = not_buy"] ;
164 -> 166 ;
167 [label="duration <= 118.5\ngini = 0.5\nsamples = 2\nvalue = [1, 1]\nclass = not_buy"] ;
166 -> 167 ;
168 [label="gini = 0.0\nsamples = 1\nvalue = [0, 1]\nclass = buy"] ;
167 -> 168 ;
169 [label="gini = 0.0\nsamples = 1\nvalue = [1, 0]\nclass = not_buy"] ;
167 -> 169 ;
170 [label="gini = 0.0\nsamples = 7\nvalue = [7, 0]\nclass = not_buy"] ;
166 -> 170 ;
171 [label="gini = 0.0\nsamples = 1\nvalue = [0, 1]\nclass = buy"] ;
159 -> 171 ;
172 [label="gini = 0.0\nsamples = 25\nvalue = [25, 0]\nclass = not_buy"] ;
158 -> 172 ;
173 [label="gini = 0.0\nsamples = 48\nvalue = [48, 0]\nclass = not_buy"] ;
157 -> 173 ;
174 [label="balance <= 120.0\ngini = 0.19\nsamples = 47\nvalue = [42, 5]\nclass = not_buy"] ;
144 -> 174 ;
175 [label="gini = 0.0\nsamples = 1\nvalue = [0, 1]\nclass = buy"] ;
174 -> 175 ;
176 [label="balance <= 144.5\ngini = 0.159\nsamples = 46\nvalue = [42, 4]\nclass = not_buy"] ;
174 -> 176 ;
177 [label="duration <= 118.0\ngini = 0.355\nsamples = 13\nvalue = [10, 3]\nclass = not_buy"] ;
176 -> 177 ;
178 [label="balance <= 130.0\ngini = 0.444\nsamples = 3\nvalue = [1, 2]\nclass = buy"] ;
177 -> 178 ;
179 [label="gini = 0.0\nsamples = 1\nvalue = [0, 1]\nclass = buy"] ;
178 -> 179 ;
180 [label="balance <= 138.5\ngini = 0.5\nsamples = 2\nvalue = [1, 1]\nclass = not_buy"] ;
178 -> 180 ;
181 [label="gini = 0.0\nsamples = 1\nvalue = [1, 0]\nclass = not_buy"] ;
180 -> 181 ;
182 [label="gini = 0.0\nsamples = 1\nvalue = [0, 1]\nclass = buy"] ;
180 -> 182 ;
183 [label="balance <= 134.0\ngini = 0.18\nsamples = 10\nvalue = [9, 1]\nclass = not_buy"] ;
177 -> 183 ;
184 [label="gini = 0.0\nsamples = 6\nvalue = [6, 0]\nclass = not_buy"] ;
183 -> 184 ;
185 [label="balance <= 139.0\ngini = 0.375\nsamples = 4\nvalue = [3, 1]\nclass = not_buy"] ;
183 -> 185 ;
186 [label="gini = 0.0\nsamples = 1\nvalue = [0, 1]\nclass = buy"] ;
185 -> 186 ;
187 [label="gini = 0.0\nsamples = 3\nvalue = [3, 0]\nclass = not_buy"] ;
185 -> 187 ;
188 [label="duration <= 122.5\ngini = 0.059\nsamples = 33\nvalue = [32, 1]\nclass = not_buy"] ;
176 -> 188 ;
189 [label="gini = 0.0\nsamples = 26\nvalue = [26, 0]\nclass = not_buy"] ;
188 -> 189 ;
190 [label="duration <= 123.5\ngini = 0.245\nsamples = 7\nvalue = [6, 1]\nclass = not_buy"] ;
188 -> 190 ;
191 [label="balance <= 170.0\ngini = 0.375\nsamples = 4\nvalue = [3, 1]\nclass = not_buy"] ;
190 -> 191 ;
192 [label="balance <= 165.5\ngini = 0.5\nsamples = 2\nvalue = [1, 1]\nclass = not_buy"] ;
191 -> 192 ;
193 [label="gini = 0.0\nsamples = 1\nvalue = [1, 0]\nclass = not_buy"] ;
192 -> 193 ;
194 [label="gini = 0.0\nsamples = 1\nvalue = [0, 1]\nclass = buy"] ;
192 -> 194 ;
195 [label="gini = 0.0\nsamples = 2\nvalue = [2, 0]\nclass = not_buy"] ;
191 -> 195 ;
196 [label="gini = 0.0\nsamples = 3\nvalue = [3, 0]\nclass = not_buy"] ;
190 -> 196 ;
197 [label="balance <= 197.5\ngini = 0.059\nsamples = 2662\nvalue = [2581, 81]\nclass = not_buy"] ;
79 -> 197 ;
198 [label="duration <= 90.5\ngini = 0.408\nsamples = 7\nvalue = [5, 2]\nclass = not_buy"] ;
197 -> 198 ;
199 [label="gini = 0.0\nsamples = 1\nvalue = [0, 1]\nclass = buy"] ;
198 -> 199 ;
200 [label="duration <= 112.5\ngini = 0.278\nsamples = 6\nvalue = [5, 1]\nclass = not_buy"] ;
198 -> 200 ;
201 [label="gini = 0.0\nsamples = 3\nvalue = [3, 0]\nclass = not_buy"] ;
200 -> 201 ;
202 [label="duration <= 114.5\ngini = 0.444\nsamples = 3\nvalue = [2, 1]\nclass = not_buy"] ;
200 -> 202 ;
203 [label="gini = 0.0\nsamples = 1\nvalue = [0, 1]\nclass = buy"] ;
202 -> 203 ;
204 [label="gini = 0.0\nsamples = 2\nvalue = [2, 0]\nclass = not_buy"] ;
202 -> 204 ;
205 [label="duration <= 94.5\ngini = 0.058\nsamples = 2655\nvalue = [2576, 79]\nclass = not_buy"] ;
197 -> 205 ;
206 [label="balance <= 295.5\ngini = 0.044\nsamples = 984\nvalue = [962, 22]\nclass = not_buy"] ;
205 -> 206 ;
207 [label="balance <= 294.0\ngini = 0.099\nsamples = 96\nvalue = [91, 5]\nclass = not_buy"] ;
206 -> 207 ;
208 [label="duration <= 90.5\ngini = 0.081\nsamples = 94\nvalue = [90, 4]\nclass = not_buy"] ;
207 -> 208 ;
209 [label="duration <= 82.5\ngini = 0.051\nsamples = 76\nvalue = [74, 2]\nclass = not_buy"] ;
208 -> 209 ;
210 [label="balance <= 256.5\ngini = 0.124\nsamples = 30\nvalue = [28, 2]\nclass = not_buy"] ;
209 -> 210 ;
211 [label="gini = 0.0\nsamples = 16\nvalue = [16, 0]\nclass = not_buy"] ;
210 -> 211 ;
212 [label="balance <= 258.5\ngini = 0.245\nsamples = 14\nvalue = [12, 2]\nclass = not_buy"] ;
210 -> 212 ;
213 [label="gini = 0.0\nsamples = 1\nvalue = [0, 1]\nclass = buy"] ;
212 -> 213 ;
214 [label="duration <= 81.5\ngini = 0.142\nsamples = 13\nvalue = [12, 1]\nclass = not_buy"] ;
212 -> 214 ;
215 [label="gini = 0.0\nsamples = 10\nvalue = [10, 0]\nclass = not_buy"] ;
214 -> 215 ;
216 [label="balance <= 283.5\ngini = 0.444\nsamples = 3\nvalue = [2, 1]\nclass = not_buy"] ;
214 -> 216 ;
217 [label="gini = 0.5\nsamples = 2\nvalue = [1, 1]\nclass = not_buy"] ;
216 -> 217 ;
218 [label="gini = 0.0\nsamples = 1\nvalue = [1, 0]\nclass = not_buy"] ;
216 -> 218 ;
219 [label="gini = 0.0\nsamples = 46\nvalue = [46, 0]\nclass = not_buy"] ;
209 -> 219 ;
220 [label="balance <= 224.5\ngini = 0.198\nsamples = 18\nvalue = [16, 2]\nclass = not_buy"] ;
208 -> 220 ;
221 [label="gini = 0.0\nsamples = 8\nvalue = [8, 0]\nclass = not_buy"] ;
220 -> 221 ;
222 [label="balance <= 236.0\ngini = 0.32\nsamples = 10\nvalue = [8, 2]\nclass = not_buy"] ;
220 -> 222 ;
223 [label="gini = 0.0\nsamples = 1\nvalue = [0, 1]\nclass = buy"] ;
222 -> 223 ;
224 [label="duration <= 92.5\ngini = 0.198\nsamples = 9\nvalue = [8, 1]\nclass = not_buy"] ;
222 -> 224 ;
225 [label="gini = 0.0\nsamples = 5\nvalue = [5, 0]\nclass = not_buy"] ;
224 -> 225 ;
226 [label="balance <= 266.5\ngini = 0.375\nsamples = 4\nvalue = [3, 1]\nclass = not_buy"] ;
224 -> 226 ;
227 [label="gini = 0.0\nsamples = 1\nvalue = [0, 1]\nclass = buy"] ;
226 -> 227 ;
228 [label="gini = 0.0\nsamples = 3\nvalue = [3, 0]\nclass = not_buy"] ;
226 -> 228 ;
229 [label="duration <= 86.0\ngini = 0.5\nsamples = 2\nvalue = [1, 1]\nclass = not_buy"] ;
207 -> 229 ;
230 [label="gini = 0.0\nsamples = 1\nvalue = [1, 0]\nclass = not_buy"] ;
229 -> 230 ;
231 [label="gini = 0.0\nsamples = 1\nvalue = [0, 1]\nclass = buy"] ;
229 -> 231 ;
232 [label="balance <= 483.0\ngini = 0.038\nsamples = 888\nvalue = [871, 17]\nclass = not_buy"] ;
206 -> 232 ;
233 [label="gini = 0.0\nsamples = 142\nvalue = [142, 0]\nclass = not_buy"] ;
232 -> 233 ;
234 [label="balance <= 484.5\ngini = 0.045\nsamples = 746\nvalue = [729, 17]\nclass = not_buy"] ;
232 -> 234 ;
235 [label="gini = 0.0\nsamples = 1\nvalue = [0, 1]\nclass = buy"] ;
234 -> 235 ;
236 [label="balance <= 2988.5\ngini = 0.042\nsamples = 745\nvalue = [729, 16]\nclass = not_buy"] ;
234 -> 236 ;
237 [label="balance <= 2986.0\ngini = 0.052\nsamples = 564\nvalue = [549, 15]\nclass = not_buy"] ;
236 -> 237 ;
238 [label="balance <= 2333.5\ngini = 0.048\nsamples = 563\nvalue = [549, 14]\nclass = not_buy"] ;
237 -> 238 ;
239 [label="duration <= 85.5\ngini = 0.038\nsamples = 512\nvalue = [502, 10]\nclass = not_buy"] ;
238 -> 239 ;
240 [label="duration <= 83.5\ngini = 0.059\nsamples = 232\nvalue = [225, 7]\nclass = not_buy"] ;
239 -> 240 ;
241 [label="balance <= 1189.0\ngini = 0.042\nsamples = 185\nvalue = [181, 4]\nclass = not_buy"] ;
240 -> 241 ;
242 [label="balance <= 590.5\ngini = 0.017\nsamples = 119\nvalue = [118, 1]\nclass = not_buy"] ;
241 -> 242 ;
243 [label="balance <= 587.0\ngini = 0.083\nsamples = 23\nvalue = [22, 1]\nclass = not_buy"] ;
242 -> 243 ;
244 [label="gini = 0.0\nsamples = 22\nvalue = [22, 0]\nclass = not_buy"] ;
243 -> 244 ;
245 [label="gini = 0.0\nsamples = 1\nvalue = [0, 1]\nclass = buy"] ;
243 -> 245 ;
246 [label="gini = 0.0\nsamples = 96\nvalue = [96, 0]\nclass = not_buy"] ;
242 -> 246 ;
247 [label="balance <= 1190.5\ngini = 0.087\nsamples = 66\nvalue = [63, 3]\nclass = not_buy"] ;
241 -> 247 ;
248 [label="gini = 0.0\nsamples = 1\nvalue = [0, 1]\nclass = buy"] ;
247 -> 248 ;
249 [label="duration <= 80.5\ngini = 0.06\nsamples = 65\nvalue = [63, 2]\nclass = not_buy"] ;
247 -> 249 ;
250 [label="balance <= 1407.0\ngini = 0.147\nsamples = 25\nvalue = [23, 2]\nclass = not_buy"] ;
249 -> 250 ;
251 [label="gini = 0.0\nsamples = 8\nvalue = [8, 0]\nclass = not_buy"] ;
250 -> 251 ;
252 [label="balance <= 1446.0\ngini = 0.208\nsamples = 17\nvalue = [15, 2]\nclass = not_buy"] ;
250 -> 252 ;
253 [label="gini = 0.0\nsamples = 1\nvalue = [0, 1]\nclass = buy"] ;
252 -> 253 ;
254 [label="balance <= 1843.5\ngini = 0.117\nsamples = 16\nvalue = [15, 1]\nclass = not_buy"] ;
252 -> 254 ;
255 [label="gini = 0.0\nsamples = 10\nvalue = [10, 0]\nclass = not_buy"] ;
254 -> 255 ;
256 [label="balance <= 1874.0\ngini = 0.278\nsamples = 6\nvalue = [5, 1]\nclass = not_buy"] ;
254 -> 256 ;
257 [label="gini = 0.0\nsamples = 1\nvalue = [0, 1]\nclass = buy"] ;
256 -> 257 ;
258 [label="gini = 0.0\nsamples = 5\nvalue = [5, 0]\nclass = not_buy"] ;
256 -> 258 ;
259 [label="gini = 0.0\nsamples = 40\nvalue = [40, 0]\nclass = not_buy"] ;
249 -> 259 ;
260 [label="balance <= 808.5\ngini = 0.12\nsamples = 47\nvalue = [44, 3]\nclass = not_buy"] ;
240 -> 260 ;
261 [label="balance <= 762.0\ngini = 0.219\nsamples = 24\nvalue = [21, 3]\nclass = not_buy"] ;
260 -> 261 ;
262 [label="balance <= 652.0\ngini = 0.091\nsamples = 21\nvalue = [20, 1]\nclass = not_buy"] ;
261 -> 262 ;
263 [label="gini = 0.0\nsamples = 14\nvalue = [14, 0]\nclass = not_buy"] ;
262 -> 263 ;
264 [label="balance <= 657.0\ngini = 0.245\nsamples = 7\nvalue = [6, 1]\nclass = not_buy"] ;
262 -> 264 ;
265 [label="gini = 0.0\nsamples = 1\nvalue = [0, 1]\nclass = buy"] ;
264 -> 265 ;
266 [label="gini = 0.0\nsamples = 6\nvalue = [6, 0]\nclass = not_buy"] ;
264 -> 266 ;
267 [label="duration <= 84.5\ngini = 0.444\nsamples = 3\nvalue = [1, 2]\nclass = buy"] ;
261 -> 267 ;
268 [label="gini = 0.0\nsamples = 1\nvalue = [0, 1]\nclass = buy"] ;
267 -> 268 ;
269 [label="balance <= 770.5\ngini = 0.5\nsamples = 2\nvalue = [1, 1]\nclass = not_buy"] ;
267 -> 269 ;
270 [label="gini = 0.0\nsamples = 1\nvalue = [0, 1]\nclass = buy"] ;
269 -> 270 ;
271 [label="gini = 0.0\nsamples = 1\nvalue = [1, 0]\nclass = not_buy"] ;
269 -> 271 ;
272 [label="gini = 0.0\nsamples = 23\nvalue = [23, 0]\nclass = not_buy"] ;
260 -> 272 ;
273 [label="balance <= 916.5\ngini = 0.021\nsamples = 280\nvalue = [277, 3]\nclass = not_buy"] ;
239 -> 273 ;
274 [label="balance <= 915.5\ngini = 0.046\nsamples = 126\nvalue = [123, 3]\nclass = not_buy"] ;
273 -> 274 ;
275 [label="balance <= 698.0\ngini = 0.031\nsamples = 125\nvalue = [123, 2]\nclass = not_buy"] ;
274 -> 275 ;
276 [label="gini = 0.0\nsamples = 73\nvalue = [73, 0]\nclass = not_buy"] ;
275 -> 276 ;
277 [label="balance <= 701.0\ngini = 0.074\nsamples = 52\nvalue = [50, 2]\nclass = not_buy"] ;
275 -> 277 ;
278 [label="duration <= 89.0\ngini = 0.5\nsamples = 2\nvalue = [1, 1]\nclass = not_buy"] ;
277 -> 278 ;
279 [label="gini = 0.0\nsamples = 1\nvalue = [1, 0]\nclass = not_buy"] ;
278 -> 279 ;
280 [label="gini = 0.0\nsamples = 1\nvalue = [0, 1]\nclass = buy"] ;
278 -> 280 ;
281 [label="balance <= 726.5\ngini = 0.039\nsamples = 50\nvalue = [49, 1]\nclass = not_buy"] ;
277 -> 281 ;
282 [label="balance <= 725.5\ngini = 0.219\nsamples = 8\nvalue = [7, 1]\nclass = not_buy"] ;
281 -> 282 ;
283 [label="gini = 0.0\nsamples = 5\nvalue = [5, 0]\nclass = not_buy"] ;
282 -> 283 ;
284 [label="duration <= 88.0\ngini = 0.444\nsamples = 3\nvalue = [2, 1]\nclass = not_buy"] ;
282 -> 284 ;
285 [label="gini = 0.0\nsamples = 1\nvalue = [1, 0]\nclass = not_buy"] ;
284 -> 285 ;
286 [label="duration <= 91.5\ngini = 0.5\nsamples = 2\nvalue = [1, 1]\nclass = not_buy"] ;
284 -> 286 ;
287 [label="gini = 0.0\nsamples = 1\nvalue = [0, 1]\nclass = buy"] ;
286 -> 287 ;
288 [label="gini = 0.0\nsamples = 1\nvalue = [1, 0]\nclass = not_buy"] ;
286 -> 288 ;
289 [label="gini = 0.0\nsamples = 42\nvalue = [42, 0]\nclass = not_buy"] ;
281 -> 289 ;
290 [label="gini = 0.0\nsamples = 1\nvalue = [0, 1]\nclass = buy"] ;
274 -> 290 ;
291 [label="gini = 0.0\nsamples = 154\nvalue = [154, 0]\nclass = not_buy"] ;
273 -> 291 ;
292 [label="balance <= 2350.5\ngini = 0.145\nsamples = 51\nvalue = [47, 4]\nclass = not_buy"] ;
238 -> 292 ;
293 [label="gini = 0.0\nsamples = 1\nvalue = [0, 1]\nclass = buy"] ;
292 -> 293 ;
294 [label="balance <= 2581.0\ngini = 0.113\nsamples = 50\nvalue = [47, 3]\nclass = not_buy"] ;
292 -> 294 ;
295 [label="balance <= 2541.0\ngini = 0.266\nsamples = 19\nvalue = [16, 3]\nclass = not_buy"] ;
294 -> 295 ;
296 [label="balance <= 2368.0\ngini = 0.198\nsamples = 18\nvalue = [16, 2]\nclass = not_buy"] ;
295 -> 296 ;
297 [label="balance <= 2366.5\ngini = 0.444\nsamples = 3\nvalue = [2, 1]\nclass = not_buy"] ;
296 -> 297 ;
298 [label="gini = 0.0\nsamples = 2\nvalue = [2, 0]\nclass = not_buy"] ;
297 -> 298 ;
299 [label="gini = 0.0\nsamples = 1\nvalue = [0, 1]\nclass = buy"] ;
297 -> 299 ;
300 [label="balance <= 2437.5\ngini = 0.124\nsamples = 15\nvalue = [14, 1]\nclass = not_buy"] ;
296 -> 300 ;
301 [label="gini = 0.0\nsamples = 9\nvalue = [9, 0]\nclass = not_buy"] ;
300 -> 301 ;
302 [label="balance <= 2447.0\ngini = 0.278\nsamples = 6\nvalue = [5, 1]\nclass = not_buy"] ;
300 -> 302 ;
303 [label="gini = 0.0\nsamples = 1\nvalue = [0, 1]\nclass = buy"] ;
302 -> 303 ;
304 [label="gini = 0.0\nsamples = 5\nvalue = [5, 0]\nclass = not_buy"] ;
302 -> 304 ;
305 [label="gini = 0.0\nsamples = 1\nvalue = [0, 1]\nclass = buy"] ;
295 -> 305 ;
306 [label="gini = 0.0\nsamples = 31\nvalue = [31, 0]\nclass = not_buy"] ;
294 -> 306 ;
307 [label="gini = 0.0\nsamples = 1\nvalue = [0, 1]\nclass = buy"] ;
237 -> 307 ;
308 [label="duration <= 79.5\ngini = 0.011\nsamples = 181\nvalue = [180, 1]\nclass = not_buy"] ;
236 -> 308 ;
309 [label="duration <= 78.5\ngini = 0.165\nsamples = 11\nvalue = [10, 1]\nclass = not_buy"] ;
308 -> 309 ;
310 [label="gini = 0.0\nsamples = 6\nvalue = [6, 0]\nclass = not_buy"] ;
309 -> 310 ;
311 [label="balance <= 4518.5\ngini = 0.32\nsamples = 5\nvalue = [4, 1]\nclass = not_buy"] ;
309 -> 311 ;
312 [label="gini = 0.0\nsamples = 2\nvalue = [2, 0]\nclass = not_buy"] ;
311 -> 312 ;
313 [label="balance <= 4878.5\ngini = 0.444\nsamples = 3\nvalue = [2, 1]\nclass = not_buy"] ;
311 -> 313 ;
314 [label="gini = 0.0\nsamples = 1\nvalue = [0, 1]\nclass = buy"] ;
313 -> 314 ;
315 [label="gini = 0.0\nsamples = 2\nvalue = [2, 0]\nclass = not_buy"] ;
313 -> 315 ;
316 [label="gini = 0.0\nsamples = 170\nvalue = [170, 0]\nclass = not_buy"] ;
308 -> 316 ;
317 [label="balance <= 10128.5\ngini = 0.066\nsamples = 1671\nvalue = [1614, 57]\nclass = not_buy"] ;
205 -> 317 ;
318 [label="duration <= 95.5\ngini = 0.063\nsamples = 1633\nvalue = [1580, 53]\nclass = not_buy"] ;
317 -> 318 ;
319 [label="balance <= 1541.5\ngini = 0.147\nsamples = 50\nvalue = [46, 4]\nclass = not_buy"] ;
318 -> 319 ;
320 [label="balance <= 1531.5\ngini = 0.202\nsamples = 35\nvalue = [31, 4]\nclass = not_buy"] ;
319 -> 320 ;
321 [label="balance <= 777.0\ngini = 0.161\nsamples = 34\nvalue = [31, 3]\nclass = not_buy"] ;
320 -> 321 ;
322 [label="balance <= 704.0\ngini = 0.227\nsamples = 23\nvalue = [20, 3]\nclass = not_buy"] ;
321 -> 322 ;
323 [label="balance <= 376.0\ngini = 0.165\nsamples = 22\nvalue = [20, 2]\nclass = not_buy"] ;
322 -> 323 ;
324 [label="gini = 0.0\nsamples = 9\nvalue = [9, 0]\nclass = not_buy"] ;
323 -> 324 ;
325 [label="balance <= 392.5\ngini = 0.26\nsamples = 13\nvalue = [11, 2]\nclass = not_buy"] ;
323 -> 325 ;
326 [label="gini = 0.0\nsamples = 1\nvalue = [0, 1]\nclass = buy"] ;
325 -> 326 ;
327 [label="balance <= 495.0\ngini = 0.153\nsamples = 12\nvalue = [11, 1]\nclass = not_buy"] ;
325 -> 327 ;
328 [label="balance <= 474.0\ngini = 0.375\nsamples = 4\nvalue = [3, 1]\nclass = not_buy"] ;
327 -> 328 ;
329 [label="gini = 0.0\nsamples = 3\nvalue = [3, 0]\nclass = not_buy"] ;
328 -> 329 ;
330 [label="gini = 0.0\nsamples = 1\nvalue = [0, 1]\nclass = buy"] ;
328 -> 330 ;
331 [label="gini = 0.0\nsamples = 8\nvalue = [8, 0]\nclass = not_buy"] ;
327 -> 331 ;
332 [label="gini = 0.0\nsamples = 1\nvalue = [0, 1]\nclass = buy"] ;
322 -> 332 ;
333 [label="gini = 0.0\nsamples = 11\nvalue = [11, 0]\nclass = not_buy"] ;
321 -> 333 ;
334 [label="gini = 0.0\nsamples = 1\nvalue = [0, 1]\nclass = buy"] ;
320 -> 334 ;
335 [label="gini = 0.0\nsamples = 15\nvalue = [15, 0]\nclass = not_buy"] ;
319 -> 335 ;
336 [label="balance <= 228.5\ngini = 0.06\nsamples = 1583\nvalue = [1534, 49]\nclass = not_buy"] ;
318 -> 336 ;
337 [label="gini = 0.0\nsamples = 54\nvalue = [54, 0]\nclass = not_buy"] ;
336 -> 337 ;
338 [label="balance <= 229.5\ngini = 0.062\nsamples = 1529\nvalue = [1480, 49]\nclass = not_buy"] ;
336 -> 338 ;
339 [label="duration <= 100.0\ngini = 0.5\nsamples = 2\nvalue = [1, 1]\nclass = not_buy"] ;
338 -> 339 ;
340 [label="gini = 0.0\nsamples = 1\nvalue = [0, 1]\nclass = buy"] ;
339 -> 340 ;
341 [label="gini = 0.0\nsamples = 1\nvalue = [1, 0]\nclass = not_buy"] ;
339 -> 341 ;
342 [label="balance <= 3320.0\ngini = 0.061\nsamples = 1527\nvalue = [1479, 48]\nclass = not_buy"] ;
338 -> 342 ;
343 [label="balance <= 2792.0\ngini = 0.056\nsamples = 1275\nvalue = [1238, 37]\nclass = not_buy"] ;
342 -> 343 ;
344 [label="balance <= 2774.0\ngini = 0.059\nsamples = 1208\nvalue = [1171, 37]\nclass = not_buy"] ;
343 -> 344 ;
345 [label="balance <= 820.5\ngini = 0.058\nsamples = 1207\nvalue = [1171, 36]\nclass = not_buy"] ;
344 -> 345 ;
346 [label="balance <= 818.5\ngini = 0.068\nsamples = 653\nvalue = [630, 23]\nclass = not_buy"] ;
345 -> 346 ;
347 [label="balance <= 754.0\ngini = 0.065\nsamples = 650\nvalue = [628, 22]\nclass = not_buy"] ;
346 -> 347 ;
348 [label="duration <= 118.5\ngini = 0.058\nsamples = 605\nvalue = [587, 18]\nclass = not_buy"] ;
347 -> 348 ;
349 [label="balance <= 288.5\ngini = 0.046\nsamples = 468\nvalue = [457, 11]\nclass = not_buy"] ;
348 -> 349 ;
350 [label="balance <= 287.5\ngini = 0.088\nsamples = 65\nvalue = [62, 3]\nclass = not_buy"] ;
349 -> 350 ;
351 [label="duration <= 96.5\ngini = 0.061\nsamples = 64\nvalue = [62, 2]\nclass = not_buy"] ;
350 -> 351 ;
352 [label="balance <= 274.5\ngini = 0.375\nsamples = 4\nvalue = [3, 1]\nclass = not_buy"] ;
351 -> 352 ;
353 [label="gini = 0.0\nsamples = 3\nvalue = [3, 0]\nclass = not_buy"] ;
352 -> 353 ;
354 [label="gini = 0.0\nsamples = 1\nvalue = [0, 1]\nclass = buy"] ;
352 -> 354 ;
355 [label="duration <= 100.5\ngini = 0.033\nsamples = 60\nvalue = [59, 1]\nclass = not_buy"] ;
351 -> 355 ;
356 [label="duration <= 99.5\ngini = 0.142\nsamples = 13\nvalue = [12, 1]\nclass = not_buy"] ;
355 -> 356 ;
357 [label="gini = 0.0\nsamples = 7\nvalue = [7, 0]\nclass = not_buy"] ;
356 -> 357 ;
358 [label="balance <= 276.0\ngini = 0.278\nsamples = 6\nvalue = [5, 1]\nclass = not_buy"] ;
356 -> 358 ;
359 [label="balance <= 266.5\ngini = 0.444\nsamples = 3\nvalue = [2, 1]\nclass = not_buy"] ;
358 -> 359 ;
360 [label="gini = 0.0\nsamples = 2\nvalue = [2, 0]\nclass = not_buy"] ;
359 -> 360 ;
361 [label="gini = 0.0\nsamples = 1\nvalue = [0, 1]\nclass = buy"] ;
359 -> 361 ;
362 [label="gini = 0.0\nsamples = 3\nvalue = [3, 0]\nclass = not_buy"] ;
358 -> 362 ;
363 [label="gini = 0.0\nsamples = 47\nvalue = [47, 0]\nclass = not_buy"] ;
355 -> 363 ;
364 [label="gini = 0.0\nsamples = 1\nvalue = [0, 1]\nclass = buy"] ;
350 -> 364 ;
365 [label="duration <= 110.5\ngini = 0.039\nsamples = 403\nvalue = [395, 8]\nclass = not_buy"] ;
349 -> 365 ;
366 [label="balance <= 605.0\ngini = 0.022\nsamples = 268\nvalue = [265, 3]\nclass = not_buy"] ;
365 -> 366 ;
367 [label="duration <= 103.5\ngini = 0.01\nsamples = 201\nvalue = [200, 1]\nclass = not_buy"] ;
366 -> 367 ;
368 [label="gini = 0.0\nsamples = 108\nvalue = [108, 0]\nclass = not_buy"] ;
367 -> 368 ;
369 [label="duration <= 104.5\ngini = 0.021\nsamples = 93\nvalue = [92, 1]\nclass = not_buy"] ;
367 -> 369 ;
370 [label="balance <= 427.5\ngini = 0.105\nsamples = 18\nvalue = [17, 1]\nclass = not_buy"] ;
369 -> 370 ;
371 [label="balance <= 418.0\ngini = 0.198\nsamples = 9\nvalue = [8, 1]\nclass = not_buy"] ;
370 -> 371 ;
372 [label="gini = 0.0\nsamples = 8\nvalue = [8, 0]\nclass = not_buy"] ;
371 -> 372 ;
373 [label="gini = 0.0\nsamples = 1\nvalue = [0, 1]\nclass = buy"] ;
371 -> 373 ;
374 [label="gini = 0.0\nsamples = 9\nvalue = [9, 0]\nclass = not_buy"] ;
370 -> 374 ;
375 [label="gini = 0.0\nsamples = 75\nvalue = [75, 0]\nclass = not_buy"] ;
369 -> 375 ;
376 [label="balance <= 606.5\ngini = 0.058\nsamples = 67\nvalue = [65, 2]\nclass = not_buy"] ;
366 -> 376 ;
377 [label="gini = 0.0\nsamples = 1\nvalue = [0, 1]\nclass = buy"] ;
376 -> 377 ;
378 [label="balance <= 620.5\ngini = 0.03\nsamples = 66\nvalue = [65, 1]\nclass = not_buy"] ;
376 -> 378 ;
379 [label="balance <= 617.5\ngini = 0.245\nsamples = 7\nvalue = [6, 1]\nclass = not_buy"] ;
378 -> 379 ;
380 [label="gini = 0.0\nsamples = 5\nvalue = [5, 0]\nclass = not_buy"] ;
379 -> 380 ;
381 [label="duration <= 105.0\ngini = 0.5\nsamples = 2\nvalue = [1, 1]\nclass = not_buy"] ;
379 -> 381 ;
382 [label="gini = 0.0\nsamples = 1\nvalue = [0, 1]\nclass = buy"] ;
381 -> 382 ;
383 [label="gini = 0.0\nsamples = 1\nvalue = [1, 0]\nclass = not_buy"] ;
381 -> 383 ;
384 [label="gini = 0.0\nsamples = 59\nvalue = [59, 0]\nclass = not_buy"] ;
378 -> 384 ;
385 [label="duration <= 112.5\ngini = 0.071\nsamples = 135\nvalue = [130, 5]\nclass = not_buy"] ;
365 -> 385 ;
386 [label="balance <= 500.0\ngini = 0.169\nsamples = 43\nvalue = [39, 4]\nclass = not_buy"] ;
385 -> 386 ;
387 [label="balance <= 339.5\ngini = 0.077\nsamples = 25\nvalue = [24, 1]\nclass = not_buy"] ;
386 -> 387 ;
388 [label="balance <= 329.5\ngini = 0.165\nsamples = 11\nvalue = [10, 1]\nclass = not_buy"] ;
387 -> 388 ;
389 [label="gini = 0.0\nsamples = 10\nvalue = [10, 0]\nclass = not_buy"] ;
388 -> 389 ;
390 [label="gini = 0.0\nsamples = 1\nvalue = [0, 1]\nclass = buy"] ;
388 -> 390 ;
391 [label="gini = 0.0\nsamples = 14\nvalue = [14, 0]\nclass = not_buy"] ;
387 -> 391 ;
392 [label="duration <= 111.5\ngini = 0.278\nsamples = 18\nvalue = [15, 3]\nclass = not_buy"] ;
386 -> 392 ;
393 [label="gini = 0.0\nsamples = 10\nvalue = [10, 0]\nclass = not_buy"] ;
392 -> 393 ;
394 [label="balance <= 691.5\ngini = 0.469\nsamples = 8\nvalue = [5, 3]\nclass = not_buy"] ;
392 -> 394 ;
395 [label="balance <= 624.5\ngini = 0.5\nsamples = 6\nvalue = [3, 3]\nclass = not_buy"] ;
394 -> 395 ;
396 [label="balance <= 573.0\ngini = 0.48\nsamples = 5\nvalue = [3, 2]\nclass = not_buy"] ;
395 -> 396 ;
397 [label="balance <= 557.5\ngini = 0.5\nsamples = 4\nvalue = [2, 2]\nclass = not_buy"] ;
396 -> 397 ;
398 [label="balance <= 537.0\ngini = 0.444\nsamples = 3\nvalue = [2, 1]\nclass = not_buy"] ;
397 -> 398 ;
399 [label="gini = 0.5\nsamples = 2\nvalue = [1, 1]\nclass = not_buy"] ;
398 -> 399 ;
400 [label="gini = 0.0\nsamples = 1\nvalue = [1, 0]\nclass = not_buy"] ;
398 -> 400 ;
401 [label="gini = 0.0\nsamples = 1\nvalue = [0, 1]\nclass = buy"] ;
397 -> 401 ;
402 [label="gini = 0.0\nsamples = 1\nvalue = [1, 0]\nclass = not_buy"] ;
396 -> 402 ;
403 [label="gini = 0.0\nsamples = 1\nvalue = [0, 1]\nclass = buy"] ;
395 -> 403 ;
404 [label="gini = 0.0\nsamples = 2\nvalue = [2, 0]\nclass = not_buy"] ;
394 -> 404 ;
405 [label="balance <= 409.5\ngini = 0.022\nsamples = 92\nvalue = [91, 1]\nclass = not_buy"] ;
385 -> 405 ;
406 [label="balance <= 406.0\ngini = 0.071\nsamples = 27\nvalue = [26, 1]\nclass = not_buy"] ;
405 -> 406 ;
407 [label="gini = 0.0\nsamples = 26\nvalue = [26, 0]\nclass = not_buy"] ;
406 -> 407 ;
408 [label="gini = 0.0\nsamples = 1\nvalue = [0, 1]\nclass = buy"] ;
406 -> 408 ;
409 [label="gini = 0.0\nsamples = 65\nvalue = [65, 0]\nclass = not_buy"] ;
405 -> 409 ;
410 [label="balance <= 673.5\ngini = 0.097\nsamples = 137\nvalue = [130, 7]\nclass = not_buy"] ;
348 -> 410 ;
411 [label="balance <= 243.5\ngini = 0.078\nsamples = 123\nvalue = [118, 5]\nclass = not_buy"] ;
410 -> 411 ;
412 [label="balance <= 239.0\ngini = 0.32\nsamples = 5\nvalue = [4, 1]\nclass = not_buy"] ;
411 -> 412 ;
413 [label="gini = 0.0\nsamples = 4\nvalue = [4, 0]\nclass = not_buy"] ;
412 -> 413 ;
414 [label="gini = 0.0\nsamples = 1\nvalue = [0, 1]\nclass = buy"] ;
412 -> 414 ;
415 [label="balance <= 345.0\ngini = 0.065\nsamples = 118\nvalue = [114, 4]\nclass = not_buy"] ;
411 -> 415 ;
416 [label="gini = 0.0\nsamples = 46\nvalue = [46, 0]\nclass = not_buy"] ;
415 -> 416 ;
417 [label="balance <= 350.0\ngini = 0.105\nsamples = 72\nvalue = [68, 4]\nclass = not_buy"] ;
415 -> 417 ;
418 [label="gini = 0.0\nsamples = 1\nvalue = [0, 1]\nclass = buy"] ;
417 -> 418 ;
419 [label="duration <= 120.5\ngini = 0.081\nsamples = 71\nvalue = [68, 3]\nclass = not_buy"] ;
417 -> 419 ;
420 [label="balance <= 482.5\ngini = 0.231\nsamples = 15\nvalue = [13, 2]\nclass = not_buy"] ;
419 -> 420 ;
421 [label="balance <= 468.0\ngini = 0.346\nsamples = 9\nvalue = [7, 2]\nclass = not_buy"] ;
420 -> 421 ;
422 [label="duration <= 119.5\ngini = 0.219\nsamples = 8\nvalue = [7, 1]\nclass = not_buy"] ;
421 -> 422 ;
423 [label="gini = 0.0\nsamples = 6\nvalue = [6, 0]\nclass = not_buy"] ;
422 -> 423 ;
424 [label="balance <= 399.5\ngini = 0.5\nsamples = 2\nvalue = [1, 1]\nclass = not_buy"] ;
422 -> 424 ;
425 [label="gini = 0.0\nsamples = 1\nvalue = [0, 1]\nclass = buy"] ;
424 -> 425 ;
426 [label="gini = 0.0\nsamples = 1\nvalue = [1, 0]\nclass = not_buy"] ;
424 -> 426 ;
427 [label="gini = 0.0\nsamples = 1\nvalue = [0, 1]\nclass = buy"] ;
421 -> 427 ;
428 [label="gini = 0.0\nsamples = 6\nvalue = [6, 0]\nclass = not_buy"] ;
420 -> 428 ;
429 [label="duration <= 123.5\ngini = 0.035\nsamples = 56\nvalue = [55, 1]\nclass = not_buy"] ;
419 -> 429 ;
430 [label="gini = 0.0\nsamples = 42\nvalue = [42, 0]\nclass = not_buy"] ;
429 -> 430 ;
431 [label="balance <= 539.0\ngini = 0.133\nsamples = 14\nvalue = [13, 1]\nclass = not_buy"] ;
429 -> 431 ;
432 [label="balance <= 522.0\ngini = 0.278\nsamples = 6\nvalue = [5, 1]\nclass = not_buy"] ;
431 -> 432 ;
433 [label="gini = 0.0\nsamples = 5\nvalue = [5, 0]\nclass = not_buy"] ;
432 -> 433 ;
434 [label="gini = 0.0\nsamples = 1\nvalue = [0, 1]\nclass = buy"] ;
432 -> 434 ;
435 [label="gini = 0.0\nsamples = 8\nvalue = [8, 0]\nclass = not_buy"] ;
431 -> 435 ;
436 [label="balance <= 681.0\ngini = 0.245\nsamples = 14\nvalue = [12, 2]\nclass = not_buy"] ;
410 -> 436 ;
437 [label="gini = 0.0\nsamples = 1\nvalue = [0, 1]\nclass = buy"] ;
436 -> 437 ;
438 [label="duration <= 121.5\ngini = 0.142\nsamples = 13\nvalue = [12, 1]\nclass = not_buy"] ;
436 -> 438 ;
439 [label="gini = 0.0\nsamples = 7\nvalue = [7, 0]\nclass = not_buy"] ;
438 -> 439 ;
440 [label="balance <= 716.0\ngini = 0.278\nsamples = 6\nvalue = [5, 1]\nclass = not_buy"] ;
438 -> 440 ;
441 [label="gini = 0.0\nsamples = 3\nvalue = [3, 0]\nclass = not_buy"] ;
440 -> 441 ;
442 [label="balance <= 721.5\ngini = 0.444\nsamples = 3\nvalue = [2, 1]\nclass = not_buy"] ;
440 -> 442 ;
443 [label="gini = 0.0\nsamples = 1\nvalue = [0, 1]\nclass = buy"] ;
442 -> 443 ;
444 [label="gini = 0.0\nsamples = 2\nvalue = [2, 0]\nclass = not_buy"] ;
442 -> 444 ;
445 [label="balance <= 755.5\ngini = 0.162\nsamples = 45\nvalue = [41, 4]\nclass = not_buy"] ;
347 -> 445 ;
446 [label="gini = 0.0\nsamples = 1\nvalue = [0, 1]\nclass = buy"] ;
445 -> 446 ;
447 [label="balance <= 774.5\ngini = 0.127\nsamples = 44\nvalue = [41, 3]\nclass = not_buy"] ;
445 -> 447 ;
448 [label="balance <= 773.5\ngini = 0.245\nsamples = 14\nvalue = [12, 2]\nclass = not_buy"] ;
447 -> 448 ;
449 [label="duration <= 114.5\ngini = 0.142\nsamples = 13\nvalue = [12, 1]\nclass = not_buy"] ;
448 -> 449 ;
450 [label="gini = 0.0\nsamples = 7\nvalue = [7, 0]\nclass = not_buy"] ;
449 -> 450 ;
451 [label="duration <= 115.5\ngini = 0.278\nsamples = 6\nvalue = [5, 1]\nclass = not_buy"] ;
449 -> 451 ;
452 [label="gini = 0.0\nsamples = 1\nvalue = [0, 1]\nclass = buy"] ;
451 -> 452 ;
453 [label="gini = 0.0\nsamples = 5\nvalue = [5, 0]\nclass = not_buy"] ;
451 -> 453 ;
454 [label="gini = 0.0\nsamples = 1\nvalue = [0, 1]\nclass = buy"] ;
448 -> 454 ;
455 [label="duration <= 109.5\ngini = 0.064\nsamples = 30\nvalue = [29, 1]\nclass = not_buy"] ;
447 -> 455 ;
456 [label="duration <= 107.0\ngini = 0.124\nsamples = 15\nvalue = [14, 1]\nclass = not_buy"] ;
455 -> 456 ;
457 [label="gini = 0.0\nsamples = 14\nvalue = [14, 0]\nclass = not_buy"] ;
456 -> 457 ;
458 [label="gini = 0.0\nsamples = 1\nvalue = [0, 1]\nclass = buy"] ;
456 -> 458 ;
459 [label="gini = 0.0\nsamples = 15\nvalue = [15, 0]\nclass = not_buy"] ;
455 -> 459 ;
460 [label="duration <= 108.0\ngini = 0.444\nsamples = 3\nvalue = [2, 1]\nclass = not_buy"] ;
346 -> 460 ;
461 [label="gini = 0.0\nsamples = 2\nvalue = [2, 0]\nclass = not_buy"] ;
460 -> 461 ;
462 [label="gini = 0.0\nsamples = 1\nvalue = [0, 1]\nclass = buy"] ;
460 -> 462 ;
463 [label="duration <= 110.5\ngini = 0.046\nsamples = 554\nvalue = [541, 13]\nclass = not_buy"] ;
345 -> 463 ;
464 [label="balance <= 1065.0\ngini = 0.072\nsamples = 295\nvalue = [284, 11]\nclass = not_buy"] ;
463 -> 464 ;
465 [label="gini = 0.0\nsamples = 75\nvalue = [75, 0]\nclass = not_buy"] ;
464 -> 465 ;
466 [label="balance <= 1072.0\ngini = 0.095\nsamples = 220\nvalue = [209, 11]\nclass = not_buy"] ;
464 -> 466 ;
467 [label="gini = 0.0\nsamples = 1\nvalue = [0, 1]\nclass = buy"] ;
466 -> 467 ;
468 [label="balance <= 1086.0\ngini = 0.087\nsamples = 219\nvalue = [209, 10]\nclass = not_buy"] ;
466 -> 468 ;
469 [label="balance <= 1082.5\ngini = 0.444\nsamples = 3\nvalue = [2, 1]\nclass = not_buy"] ;
468 -> 469 ;
470 [label="gini = 0.0\nsamples = 2\nvalue = [2, 0]\nclass = not_buy"] ;
469 -> 470 ;
471 [label="gini = 0.0\nsamples = 1\nvalue = [0, 1]\nclass = buy"] ;
469 -> 471 ;
472 [label="duration <= 104.5\ngini = 0.08\nsamples = 216\nvalue = [207, 9]\nclass = not_buy"] ;
468 -> 472 ;
473 [label="balance <= 1132.0\ngini = 0.044\nsamples = 132\nvalue = [129, 3]\nclass = not_buy"] ;
472 -> 473 ;
474 [label="duration <= 97.5\ngini = 0.278\nsamples = 6\nvalue = [5, 1]\nclass = not_buy"] ;
473 -> 474 ;
475 [label="gini = 0.0\nsamples = 1\nvalue = [0, 1]\nclass = buy"] ;
474 -> 475 ;
476 [label="gini = 0.0\nsamples = 5\nvalue = [5, 0]\nclass = not_buy"] ;
474 -> 476 ;
477 [label="balance <= 1968.0\ngini = 0.031\nsamples = 126\nvalue = [124, 2]\nclass = not_buy"] ;
473 -> 477 ;
478 [label="gini = 0.0\nsamples = 84\nvalue = [84, 0]\nclass = not_buy"] ;
477 -> 478 ;
479 [label="balance <= 1990.5\ngini = 0.091\nsamples = 42\nvalue = [40, 2]\nclass = not_buy"] ;
477 -> 479 ;
480 [label="duration <= 102.5\ngini = 0.5\nsamples = 2\nvalue = [1, 1]\nclass = not_buy"] ;
479 -> 480 ;
481 [label="gini = 0.0\nsamples = 1\nvalue = [1, 0]\nclass = not_buy"] ;
480 -> 481 ;
482 [label="gini = 0.0\nsamples = 1\nvalue = [0, 1]\nclass = buy"] ;
480 -> 482 ;
483 [label="balance <= 2170.0\ngini = 0.049\nsamples = 40\nvalue = [39, 1]\nclass = not_buy"] ;
479 -> 483 ;
484 [label="balance <= 2145.5\ngini = 0.153\nsamples = 12\nvalue = [11, 1]\nclass = not_buy"] ;
483 -> 484 ;
485 [label="gini = 0.0\nsamples = 11\nvalue = [11, 0]\nclass = not_buy"] ;
484 -> 485 ;
486 [label="gini = 0.0\nsamples = 1\nvalue = [0, 1]\nclass = buy"] ;
484 -> 486 ;
487 [label="gini = 0.0\nsamples = 28\nvalue = [28, 0]\nclass = not_buy"] ;
483 -> 487 ;
488 [label="balance <= 1262.5\ngini = 0.133\nsamples = 84\nvalue = [78, 6]\nclass = not_buy"] ;
472 -> 488 ;
489 [label="gini = 0.0\nsamples = 18\nvalue = [18, 0]\nclass = not_buy"] ;
488 -> 489 ;
490 [label="balance <= 1274.5\ngini = 0.165\nsamples = 66\nvalue = [60, 6]\nclass = not_buy"] ;
488 -> 490 ;
491 [label="gini = 0.0\nsamples = 1\nvalue = [0, 1]\nclass = buy"] ;
490 -> 491 ;
492 [label="balance <= 1576.5\ngini = 0.142\nsamples = 65\nvalue = [60, 5]\nclass = not_buy"] ;
490 -> 492 ;
493 [label="gini = 0.0\nsamples = 16\nvalue = [16, 0]\nclass = not_buy"] ;
492 -> 493 ;
494 [label="balance <= 1590.5\ngini = 0.183\nsamples = 49\nvalue = [44, 5]\nclass = not_buy"] ;
492 -> 494 ;
495 [label="gini = 0.0\nsamples = 1\nvalue = [0, 1]\nclass = buy"] ;
494 -> 495 ;
496 [label="balance <= 1675.0\ngini = 0.153\nsamples = 48\nvalue = [44, 4]\nclass = not_buy"] ;
494 -> 496 ;
497 [label="balance <= 1622.5\ngini = 0.375\nsamples = 8\nvalue = [6, 2]\nclass = not_buy"] ;
496 -> 497 ;
498 [label="gini = 0.0\nsamples = 5\nvalue = [5, 0]\nclass = not_buy"] ;
497 -> 498 ;
499 [label="duration <= 105.5\ngini = 0.444\nsamples = 3\nvalue = [1, 2]\nclass = buy"] ;
497 -> 499 ;
500 [label="gini = 0.0\nsamples = 1\nvalue = [1, 0]\nclass = not_buy"] ;
499 -> 500 ;
501 [label="gini = 0.0\nsamples = 2\nvalue = [0, 2]\nclass = buy"] ;
499 -> 501 ;
502 [label="duration <= 109.5\ngini = 0.095\nsamples = 40\nvalue = [38, 2]\nclass = not_buy"] ;
496 -> 502 ;
503 [label="balance <= 1873.0\ngini = 0.057\nsamples = 34\nvalue = [33, 1]\nclass = not_buy"] ;
502 -> 503 ;
504 [label="balance <= 1829.0\ngini = 0.245\nsamples = 7\nvalue = [6, 1]\nclass = not_buy"] ;
503 -> 504 ;
505 [label="gini = 0.0\nsamples = 6\nvalue = [6, 0]\nclass = not_buy"] ;
504 -> 505 ;
506 [label="gini = 0.0\nsamples = 1\nvalue = [0, 1]\nclass = buy"] ;
504 -> 506 ;
507 [label="gini = 0.0\nsamples = 27\nvalue = [27, 0]\nclass = not_buy"] ;
503 -> 507 ;
508 [label="balance <= 2363.0\ngini = 0.278\nsamples = 6\nvalue = [5, 1]\nclass = not_buy"] ;
502 -> 508 ;
509 [label="gini = 0.0\nsamples = 5\nvalue = [5, 0]\nclass = not_buy"] ;
508 -> 509 ;
510 [label="gini = 0.0\nsamples = 1\nvalue = [0, 1]\nclass = buy"] ;
508 -> 510 ;
511 [label="balance <= 1993.5\ngini = 0.015\nsamples = 259\nvalue = [257, 2]\nclass = not_buy"] ;
463 -> 511 ;
512 [label="gini = 0.0\nsamples = 202\nvalue = [202, 0]\nclass = not_buy"] ;
511 -> 512 ;
513 [label="balance <= 1998.5\ngini = 0.068\nsamples = 57\nvalue = [55, 2]\nclass = not_buy"] ;
511 -> 513 ;
514 [label="gini = 0.0\nsamples = 1\nvalue = [0, 1]\nclass = buy"] ;
513 -> 514 ;
515 [label="duration <= 114.5\ngini = 0.035\nsamples = 56\nvalue = [55, 1]\nclass = not_buy"] ;
513 -> 515 ;
516 [label="duration <= 113.5\ngini = 0.124\nsamples = 15\nvalue = [14, 1]\nclass = not_buy"] ;
515 -> 516 ;
517 [label="gini = 0.0\nsamples = 10\nvalue = [10, 0]\nclass = not_buy"] ;
516 -> 517 ;
518 [label="balance <= 2294.5\ngini = 0.32\nsamples = 5\nvalue = [4, 1]\nclass = not_buy"] ;
516 -> 518 ;
519 [label="gini = 0.0\nsamples = 3\nvalue = [3, 0]\nclass = not_buy"] ;
518 -> 519 ;
520 [label="balance <= 2542.0\ngini = 0.5\nsamples = 2\nvalue = [1, 1]\nclass = not_buy"] ;
518 -> 520 ;
521 [label="gini = 0.0\nsamples = 1\nvalue = [0, 1]\nclass = buy"] ;
520 -> 521 ;
522 [label="gini = 0.0\nsamples = 1\nvalue = [1, 0]\nclass = not_buy"] ;
520 -> 522 ;
523 [label="gini = 0.0\nsamples = 41\nvalue = [41, 0]\nclass = not_buy"] ;
515 -> 523 ;
524 [label="gini = 0.0\nsamples = 1\nvalue = [0, 1]\nclass = buy"] ;
344 -> 524 ;
525 [label="gini = 0.0\nsamples = 67\nvalue = [67, 0]\nclass = not_buy"] ;
343 -> 525 ;
526 [label="balance <= 3327.0\ngini = 0.083\nsamples = 252\nvalue = [241, 11]\nclass = not_buy"] ;
342 -> 526 ;
527 [label="duration <= 115.0\ngini = 0.5\nsamples = 2\nvalue = [1, 1]\nclass = not_buy"] ;
526 -> 527 ;
528 [label="gini = 0.0\nsamples = 1\nvalue = [1, 0]\nclass = not_buy"] ;
527 -> 528 ;
529 [label="gini = 0.0\nsamples = 1\nvalue = [0, 1]\nclass = buy"] ;
527 -> 529 ;
530 [label="duration <= 96.5\ngini = 0.077\nsamples = 250\nvalue = [240, 10]\nclass = not_buy"] ;
526 -> 530 ;
531 [label="balance <= 3630.0\ngini = 0.278\nsamples = 6\nvalue = [5, 1]\nclass = not_buy"] ;
530 -> 531 ;
532 [label="gini = 0.0\nsamples = 1\nvalue = [0, 1]\nclass = buy"] ;
531 -> 532 ;
533 [label="gini = 0.0\nsamples = 5\nvalue = [5, 0]\nclass = not_buy"] ;
531 -> 533 ;
534 [label="duration <= 116.5\ngini = 0.071\nsamples = 244\nvalue = [235, 9]\nclass = not_buy"] ;
530 -> 534 ;
535 [label="balance <= 3709.0\ngini = 0.053\nsamples = 185\nvalue = [180, 5]\nclass = not_buy"] ;
534 -> 535 ;
536 [label="balance <= 3689.5\ngini = 0.142\nsamples = 26\nvalue = [24, 2]\nclass = not_buy"] ;
535 -> 536 ;
537 [label="balance <= 3427.0\ngini = 0.077\nsamples = 25\nvalue = [24, 1]\nclass = not_buy"] ;
536 -> 537 ;
538 [label="balance <= 3423.0\ngini = 0.198\nsamples = 9\nvalue = [8, 1]\nclass = not_buy"] ;
537 -> 538 ;
539 [label="gini = 0.0\nsamples = 8\nvalue = [8, 0]\nclass = not_buy"] ;
538 -> 539 ;
540 [label="gini = 0.0\nsamples = 1\nvalue = [0, 1]\nclass = buy"] ;
538 -> 540 ;
541 [label="gini = 0.0\nsamples = 16\nvalue = [16, 0]\nclass = not_buy"] ;
537 -> 541 ;
542 [label="gini = 0.0\nsamples = 1\nvalue = [0, 1]\nclass = buy"] ;
536 -> 542 ;
543 [label="duration <= 110.5\ngini = 0.037\nsamples = 159\nvalue = [156, 3]\nclass = not_buy"] ;
535 -> 543 ;
544 [label="duration <= 99.5\ngini = 0.017\nsamples = 115\nvalue = [114, 1]\nclass = not_buy"] ;
543 -> 544 ;
545 [label="duration <= 98.5\ngini = 0.074\nsamples = 26\nvalue = [25, 1]\nclass = not_buy"] ;
544 -> 545 ;
546 [label="gini = 0.0\nsamples = 18\nvalue = [18, 0]\nclass = not_buy"] ;
545 -> 546 ;
547 [label="balance <= 5098.5\ngini = 0.219\nsamples = 8\nvalue = [7, 1]\nclass = not_buy"] ;
545 -> 547 ;
548 [label="gini = 0.0\nsamples = 6\nvalue = [6, 0]\nclass = not_buy"] ;
547 -> 548 ;
549 [label="balance <= 6214.0\ngini = 0.5\nsamples = 2\nvalue = [1, 1]\nclass = not_buy"] ;
547 -> 549 ;
550 [label="gini = 0.0\nsamples = 1\nvalue = [0, 1]\nclass = buy"] ;
549 -> 550 ;
551 [label="gini = 0.0\nsamples = 1\nvalue = [1, 0]\nclass = not_buy"] ;
549 -> 551 ;
552 [label="gini = 0.0\nsamples = 89\nvalue = [89, 0]\nclass = not_buy"] ;
544 -> 552 ;
553 [label="duration <= 111.5\ngini = 0.087\nsamples = 44\nvalue = [42, 2]\nclass = not_buy"] ;
543 -> 553 ;
554 [label="balance <= 7464.0\ngini = 0.32\nsamples = 5\nvalue = [4, 1]\nclass = not_buy"] ;
553 -> 554 ;
555 [label="gini = 0.0\nsamples = 4\nvalue = [4, 0]\nclass = not_buy"] ;
554 -> 555 ;
556 [label="gini = 0.0\nsamples = 1\nvalue = [0, 1]\nclass = buy"] ;
554 -> 556 ;
557 [label="balance <= 4694.5\ngini = 0.05\nsamples = 39\nvalue = [38, 1]\nclass = not_buy"] ;
553 -> 557 ;
558 [label="balance <= 4616.5\ngini = 0.142\nsamples = 13\nvalue = [12, 1]\nclass = not_buy"] ;
557 -> 558 ;
559 [label="gini = 0.0\nsamples = 12\nvalue = [12, 0]\nclass = not_buy"] ;
558 -> 559 ;
560 [label="gini = 0.0\nsamples = 1\nvalue = [0, 1]\nclass = buy"] ;
558 -> 560 ;
561 [label="gini = 0.0\nsamples = 26\nvalue = [26, 0]\nclass = not_buy"] ;
557 -> 561 ;
562 [label="balance <= 4974.0\ngini = 0.126\nsamples = 59\nvalue = [55, 4]\nclass = not_buy"] ;
534 -> 562 ;
563 [label="duration <= 123.5\ngini = 0.059\nsamples = 33\nvalue = [32, 1]\nclass = not_buy"] ;
562 -> 563 ;
564 [label="gini = 0.0\nsamples = 26\nvalue = [26, 0]\nclass = not_buy"] ;
563 -> 564 ;
565 [label="balance <= 3843.0\ngini = 0.245\nsamples = 7\nvalue = [6, 1]\nclass = not_buy"] ;
563 -> 565 ;
566 [label="gini = 0.0\nsamples = 4\nvalue = [4, 0]\nclass = not_buy"] ;
565 -> 566 ;
567 [label="balance <= 3920.0\ngini = 0.444\nsamples = 3\nvalue = [2, 1]\nclass = not_buy"] ;
565 -> 567 ;
568 [label="gini = 0.0\nsamples = 1\nvalue = [0, 1]\nclass = buy"] ;
567 -> 568 ;
569 [label="gini = 0.0\nsamples = 2\nvalue = [2, 0]\nclass = not_buy"] ;
567 -> 569 ;
570 [label="balance <= 5010.5\ngini = 0.204\nsamples = 26\nvalue = [23, 3]\nclass = not_buy"] ;
562 -> 570 ;
571 [label="gini = 0.0\nsamples = 1\nvalue = [0, 1]\nclass = buy"] ;
570 -> 571 ;
572 [label="balance <= 6492.0\ngini = 0.147\nsamples = 25\nvalue = [23, 2]\nclass = not_buy"] ;
570 -> 572 ;
573 [label="balance <= 6409.5\ngini = 0.298\nsamples = 11\nvalue = [9, 2]\nclass = not_buy"] ;
572 -> 573 ;
574 [label="balance <= 5284.5\ngini = 0.18\nsamples = 10\nvalue = [9, 1]\nclass = not_buy"] ;
573 -> 574 ;
575 [label="gini = 0.0\nsamples = 5\nvalue = [5, 0]\nclass = not_buy"] ;
574 -> 575 ;
576 [label="balance <= 5379.0\ngini = 0.32\nsamples = 5\nvalue = [4, 1]\nclass = not_buy"] ;
574 -> 576 ;
577 [label="gini = 0.0\nsamples = 1\nvalue = [0, 1]\nclass = buy"] ;
576 -> 577 ;
578 [label="gini = 0.0\nsamples = 4\nvalue = [4, 0]\nclass = not_buy"] ;
576 -> 578 ;
579 [label="gini = 0.0\nsamples = 1\nvalue = [0, 1]\nclass = buy"] ;
573 -> 579 ;
580 [label="gini = 0.0\nsamples = 14\nvalue = [14, 0]\nclass = not_buy"] ;
572 -> 580 ;
581 [label="balance <= 10268.5\ngini = 0.188\nsamples = 38\nvalue = [34, 4]\nclass = not_buy"] ;
317 -> 581 ;
582 [label="gini = 0.0\nsamples = 2\nvalue = [0, 2]\nclass = buy"] ;
581 -> 582 ;
583 [label="duration <= 114.0\ngini = 0.105\nsamples = 36\nvalue = [34, 2]\nclass = not_buy"] ;
581 -> 583 ;
584 [label="gini = 0.0\nsamples = 25\nvalue = [25, 0]\nclass = not_buy"] ;
583 -> 584 ;
585 [label="balance <= 12580.0\ngini = 0.298\nsamples = 11\nvalue = [9, 2]\nclass = not_buy"] ;
583 -> 585 ;
586 [label="gini = 0.0\nsamples = 5\nvalue = [5, 0]\nclass = not_buy"] ;
585 -> 586 ;
587 [label="balance <= 13331.5\ngini = 0.444\nsamples = 6\nvalue = [4, 2]\nclass = not_buy"] ;
585 -> 587 ;
588 [label="gini = 0.0\nsamples = 1\nvalue = [0, 1]\nclass = buy"] ;
587 -> 588 ;
589 [label="balance <= 16407.0\ngini = 0.32\nsamples = 5\nvalue = [4, 1]\nclass = not_buy"] ;
587 -> 589 ;
590 [label="gini = 0.0\nsamples = 2\nvalue = [2, 0]\nclass = not_buy"] ;
589 -> 590 ;
591 [label="balance <= 19272.0\ngini = 0.444\nsamples = 3\nvalue = [2, 1]\nclass = not_buy"] ;
589 -> 591 ;
592 [label="gini = 0.0\nsamples = 1\nvalue = [0, 1]\nclass = buy"] ;
591 -> 592 ;
593 [label="gini = 0.0\nsamples = 2\nvalue = [2, 0]\nclass = not_buy"] ;
591 -> 593 ;
594 [label="balance <= 888.5\ngini = 0.129\nsamples = 6035\nvalue = [5617, 418]\nclass = not_buy"] ;
2 -> 594 ;
595 [label="balance <= -0.5\ngini = 0.094\nsamples = 3991\nvalue = [3794, 197]\nclass = not_buy"] ;
594 -> 595 ;
596 [label="balance <= -130.5\ngini = 0.007\nsamples = 557\nvalue = [555, 2]\nclass = not_buy"] ;
595 -> 596 ;
597 [label="gini = 0.0\nsamples = 377\nvalue = [377, 0]\nclass = not_buy"] ;
596 -> 597 ;
598 [label="balance <= -129.5\ngini = 0.022\nsamples = 180\nvalue = [178, 2]\nclass = not_buy"] ;
596 -> 598 ;
599 [label="duration <= 149.0\ngini = 0.444\nsamples = 3\nvalue = [2, 1]\nclass = not_buy"] ;
598 -> 599 ;
600 [label="gini = 0.0\nsamples = 1\nvalue = [0, 1]\nclass = buy"] ;
599 -> 600 ;
601 [label="gini = 0.0\nsamples = 2\nvalue = [2, 0]\nclass = not_buy"] ;
599 -> 601 ;
602 [label="duration <= 154.5\ngini = 0.011\nsamples = 177\nvalue = [176, 1]\nclass = not_buy"] ;
598 -> 602 ;
603 [label="duration <= 153.5\ngini = 0.029\nsamples = 68\nvalue = [67, 1]\nclass = not_buy"] ;
602 -> 603 ;
604 [label="gini = 0.0\nsamples = 65\nvalue = [65, 0]\nclass = not_buy"] ;
603 -> 604 ;
605 [label="balance <= -43.5\ngini = 0.444\nsamples = 3\nvalue = [2, 1]\nclass = not_buy"] ;
603 -> 605 ;
606 [label="gini = 0.0\nsamples = 1\nvalue = [0, 1]\nclass = buy"] ;
605 -> 606 ;
607 [label="gini = 0.0\nsamples = 2\nvalue = [2, 0]\nclass = not_buy"] ;
605 -> 607 ;
608 [label="gini = 0.0\nsamples = 109\nvalue = [109, 0]\nclass = not_buy"] ;
602 -> 608 ;
609 [label="balance <= 65.5\ngini = 0.107\nsamples = 3434\nvalue = [3239, 195]\nclass = not_buy"] ;
595 -> 609 ;
610 [label="duration <= 145.5\ngini = 0.078\nsamples = 979\nvalue = [939, 40]\nclass = not_buy"] ;
609 -> 610 ;
611 [label="duration <= 140.5\ngini = 0.054\nsamples = 288\nvalue = [280, 8]\nclass = not_buy"] ;
610 -> 611 ;
612 [label="duration <= 139.5\ngini = 0.069\nsamples = 223\nvalue = [215, 8]\nclass = not_buy"] ;
611 -> 612 ;
613 [label="balance <= 1.5\ngini = 0.055\nsamples = 211\nvalue = [205, 6]\nclass = not_buy"] ;
612 -> 613 ;
614 [label="duration <= 132.5\ngini = 0.018\nsamples = 108\nvalue = [107, 1]\nclass = not_buy"] ;
613 -> 614 ;
615 [label="gini = 0.0\nsamples = 57\nvalue = [57, 0]\nclass = not_buy"] ;
614 -> 615 ;
616 [label="duration <= 133.5\ngini = 0.038\nsamples = 51\nvalue = [50, 1]\nclass = not_buy"] ;
614 -> 616 ;
617 [label="gini = 0.32\nsamples = 5\nvalue = [4, 1]\nclass = not_buy"] ;
616 -> 617 ;
618 [label="gini = 0.0\nsamples = 46\nvalue = [46, 0]\nclass = not_buy"] ;
616 -> 618 ;
619 [label="balance <= 3.5\ngini = 0.092\nsamples = 103\nvalue = [98, 5]\nclass = not_buy"] ;
613 -> 619 ;
620 [label="duration <= 131.5\ngini = 0.375\nsamples = 8\nvalue = [6, 2]\nclass = not_buy"] ;
619 -> 620 ;
621 [label="duration <= 129.0\ngini = 0.444\nsamples = 3\nvalue = [1, 2]\nclass = buy"] ;
620 -> 621 ;
622 [label="gini = 0.0\nsamples = 1\nvalue = [1, 0]\nclass = not_buy"] ;
621 -> 622 ;
623 [label="gini = 0.0\nsamples = 2\nvalue = [0, 2]\nclass = buy"] ;
621 -> 623 ;
624 [label="gini = 0.0\nsamples = 5\nvalue = [5, 0]\nclass = not_buy"] ;
620 -> 624 ;
625 [label="duration <= 136.5\ngini = 0.061\nsamples = 95\nvalue = [92, 3]\nclass = not_buy"] ;
619 -> 625 ;
626 [label="duration <= 126.5\ngini = 0.024\nsamples = 83\nvalue = [82, 1]\nclass = not_buy"] ;
625 -> 626 ;
627 [label="balance <= 14.5\ngini = 0.133\nsamples = 14\nvalue = [13, 1]\nclass = not_buy"] ;
626 -> 627 ;
628 [label="balance <= 10.5\ngini = 0.375\nsamples = 4\nvalue = [3, 1]\nclass = not_buy"] ;
627 -> 628 ;
629 [label="gini = 0.0\nsamples = 2\nvalue = [2, 0]\nclass = not_buy"] ;
628 -> 629 ;
630 [label="gini = 0.5\nsamples = 2\nvalue = [1, 1]\nclass = not_buy"] ;
628 -> 630 ;
631 [label="gini = 0.0\nsamples = 10\nvalue = [10, 0]\nclass = not_buy"] ;
627 -> 631 ;
632 [label="gini = 0.0\nsamples = 69\nvalue = [69, 0]\nclass = not_buy"] ;
626 -> 632 ;
633 [label="balance <= 56.0\ngini = 0.278\nsamples = 12\nvalue = [10, 2]\nclass = not_buy"] ;
625 -> 633 ;
634 [label="balance <= 26.5\ngini = 0.18\nsamples = 10\nvalue = [9, 1]\nclass = not_buy"] ;
633 -> 634 ;
635 [label="balance <= 20.5\ngini = 0.444\nsamples = 3\nvalue = [2, 1]\nclass = not_buy"] ;
634 -> 635 ;
636 [label="gini = 0.0\nsamples = 2\nvalue = [2, 0]\nclass = not_buy"] ;
635 -> 636 ;
637 [label="gini = 0.0\nsamples = 1\nvalue = [0, 1]\nclass = buy"] ;
635 -> 637 ;
638 [label="gini = 0.0\nsamples = 7\nvalue = [7, 0]\nclass = not_buy"] ;
634 -> 638 ;
639 [label="balance <= 60.5\ngini = 0.5\nsamples = 2\nvalue = [1, 1]\nclass = not_buy"] ;
633 -> 639 ;
640 [label="gini = 0.0\nsamples = 1\nvalue = [0, 1]\nclass = buy"] ;
639 -> 640 ;
641 [label="gini = 0.0\nsamples = 1\nvalue = [1, 0]\nclass = not_buy"] ;
639 -> 641 ;
642 [label="balance <= 1.0\ngini = 0.278\nsamples = 12\nvalue = [10, 2]\nclass = not_buy"] ;
612 -> 642 ;
643 [label="gini = 0.48\nsamples = 5\nvalue = [3, 2]\nclass = not_buy"] ;
642 -> 643 ;
644 [label="gini = 0.0\nsamples = 7\nvalue = [7, 0]\nclass = not_buy"] ;
642 -> 644 ;
645 [label="gini = 0.0\nsamples = 65\nvalue = [65, 0]\nclass = not_buy"] ;
611 -> 645 ;
646 [label="duration <= 163.5\ngini = 0.088\nsamples = 691\nvalue = [659, 32]\nclass = not_buy"] ;
610 -> 646 ;
647 [label="balance <= 2.5\ngini = 0.12\nsamples = 234\nvalue = [219, 15]\nclass = not_buy"] ;
646 -> 647 ;
648 [label="balance <= 0.5\ngini = 0.158\nsamples = 116\nvalue = [106, 10]\nclass = not_buy"] ;
647 -> 648 ;
649 [label="duration <= 147.5\ngini = 0.12\nsamples = 109\nvalue = [102, 7]\nclass = not_buy"] ;
648 -> 649 ;
650 [label="duration <= 146.5\ngini = 0.32\nsamples = 10\nvalue = [8, 2]\nclass = not_buy"] ;
649 -> 650 ;
651 [label="gini = 0.278\nsamples = 6\nvalue = [5, 1]\nclass = not_buy"] ;
650 -> 651 ;
652 [label="gini = 0.375\nsamples = 4\nvalue = [3, 1]\nclass = not_buy"] ;
650 -> 652 ;
653 [label="duration <= 153.5\ngini = 0.096\nsamples = 99\nvalue = [94, 5]\nclass = not_buy"] ;
649 -> 653 ;
654 [label="gini = 0.0\nsamples = 38\nvalue = [38, 0]\nclass = not_buy"] ;
653 -> 654 ;
655 [label="duration <= 162.5\ngini = 0.15\nsamples = 61\nvalue = [56, 5]\nclass = not_buy"] ;
653 -> 655 ;
656 [label="duration <= 161.5\ngini = 0.168\nsamples = 54\nvalue = [49, 5]\nclass = not_buy"] ;
655 -> 656 ;
657 [label="duration <= 155.5\ngini = 0.153\nsamples = 48\nvalue = [44, 4]\nclass = not_buy"] ;
656 -> 657 ;
658 [label="duration <= 154.5\ngini = 0.198\nsamples = 18\nvalue = [16, 2]\nclass = not_buy"] ;
657 -> 658 ;
659 [label="gini = 0.219\nsamples = 8\nvalue = [7, 1]\nclass = not_buy"] ;
658 -> 659 ;
660 [label="gini = 0.18\nsamples = 10\nvalue = [9, 1]\nclass = not_buy"] ;
658 -> 660 ;
661 [label="duration <= 157.5\ngini = 0.124\nsamples = 30\nvalue = [28, 2]\nclass = not_buy"] ;
657 -> 661 ;
662 [label="gini = 0.0\nsamples = 8\nvalue = [8, 0]\nclass = not_buy"] ;
661 -> 662 ;
663 [label="duration <= 158.5\ngini = 0.165\nsamples = 22\nvalue = [20, 2]\nclass = not_buy"] ;
661 -> 663 ;
664 [label="gini = 0.375\nsamples = 4\nvalue = [3, 1]\nclass = not_buy"] ;
663 -> 664 ;
665 [label="duration <= 160.5\ngini = 0.105\nsamples = 18\nvalue = [17, 1]\nclass = not_buy"] ;
663 -> 665 ;
666 [label="gini = 0.0\nsamples = 9\nvalue = [9, 0]\nclass = not_buy"] ;
665 -> 666 ;
667 [label="gini = 0.198\nsamples = 9\nvalue = [8, 1]\nclass = not_buy"] ;
665 -> 667 ;
668 [label="gini = 0.278\nsamples = 6\nvalue = [5, 1]\nclass = not_buy"] ;
656 -> 668 ;
669 [label="gini = 0.0\nsamples = 7\nvalue = [7, 0]\nclass = not_buy"] ;
655 -> 669 ;
670 [label="duration <= 153.5\ngini = 0.49\nsamples = 7\nvalue = [4, 3]\nclass = not_buy"] ;
648 -> 670 ;
671 [label="balance <= 1.5\ngini = 0.444\nsamples = 3\nvalue = [1, 2]\nclass = buy"] ;
670 -> 671 ;
672 [label="gini = 0.5\nsamples = 2\nvalue = [1, 1]\nclass = not_buy"] ;
671 -> 672 ;
673 [label="gini = 0.0\nsamples = 1\nvalue = [0, 1]\nclass = buy"] ;
671 -> 673 ;
674 [label="duration <= 158.5\ngini = 0.375\nsamples = 4\nvalue = [3, 1]\nclass = not_buy"] ;
670 -> 674 ;
675 [label="gini = 0.0\nsamples = 2\nvalue = [2, 0]\nclass = not_buy"] ;
674 -> 675 ;
676 [label="duration <= 160.5\ngini = 0.5\nsamples = 2\nvalue = [1, 1]\nclass = not_buy"] ;
674 -> 676 ;
677 [label="gini = 0.0\nsamples = 1\nvalue = [0, 1]\nclass = buy"] ;
676 -> 677 ;
678 [label="gini = 0.0\nsamples = 1\nvalue = [1, 0]\nclass = not_buy"] ;
676 -> 678 ;
679 [label="duration <= 149.5\ngini = 0.081\nsamples = 118\nvalue = [113, 5]\nclass = not_buy"] ;
647 -> 679 ;
680 [label="duration <= 148.5\ngini = 0.198\nsamples = 18\nvalue = [16, 2]\nclass = not_buy"] ;
679 -> 680 ;
681 [label="gini = 0.0\nsamples = 13\nvalue = [13, 0]\nclass = not_buy"] ;
680 -> 681 ;
682 [label="balance <= 46.0\ngini = 0.48\nsamples = 5\nvalue = [3, 2]\nclass = not_buy"] ;
680 -> 682 ;
683 [label="balance <= 27.0\ngini = 0.444\nsamples = 3\nvalue = [1, 2]\nclass = buy"] ;
682 -> 683 ;
684 [label="gini = 0.0\nsamples = 1\nvalue = [0, 1]\nclass = buy"] ;
683 -> 684 ;
685 [label="balance <= 38.5\ngini = 0.5\nsamples = 2\nvalue = [1, 1]\nclass = not_buy"] ;
683 -> 685 ;
686 [label="gini = 0.0\nsamples = 1\nvalue = [1, 0]\nclass = not_buy"] ;
685 -> 686 ;
687 [label="gini = 0.0\nsamples = 1\nvalue = [0, 1]\nclass = buy"] ;
685 -> 687 ;
688 [label="gini = 0.0\nsamples = 2\nvalue = [2, 0]\nclass = not_buy"] ;
682 -> 688 ;
689 [label="balance <= 47.5\ngini = 0.058\nsamples = 100\nvalue = [97, 3]\nclass = not_buy"] ;
679 -> 689 ;
690 [label="duration <= 162.5\ngini = 0.025\nsamples = 79\nvalue = [78, 1]\nclass = not_buy"] ;
689 -> 690 ;
691 [label="gini = 0.0\nsamples = 69\nvalue = [69, 0]\nclass = not_buy"] ;
690 -> 691 ;
692 [label="balance <= 25.0\ngini = 0.18\nsamples = 10\nvalue = [9, 1]\nclass = not_buy"] ;
690 -> 692 ;
693 [label="balance <= 14.5\ngini = 0.444\nsamples = 3\nvalue = [2, 1]\nclass = not_buy"] ;
692 -> 693 ;
694 [label="gini = 0.0\nsamples = 2\nvalue = [2, 0]\nclass = not_buy"] ;
693 -> 694 ;
695 [label="gini = 0.0\nsamples = 1\nvalue = [0, 1]\nclass = buy"] ;
693 -> 695 ;
696 [label="gini = 0.0\nsamples = 7\nvalue = [7, 0]\nclass = not_buy"] ;
692 -> 696 ;
697 [label="balance <= 48.5\ngini = 0.172\nsamples = 21\nvalue = [19, 2]\nclass = not_buy"] ;
689 -> 697 ;
698 [label="gini = 0.0\nsamples = 1\nvalue = [0, 1]\nclass = buy"] ;
697 -> 698 ;
699 [label="balance <= 59.5\ngini = 0.095\nsamples = 20\nvalue = [19, 1]\nclass = not_buy"] ;
697 -> 699 ;
700 [label="gini = 0.0\nsamples = 13\nvalue = [13, 0]\nclass = not_buy"] ;
699 -> 700 ;
701 [label="balance <= 60.5\ngini = 0.245\nsamples = 7\nvalue = [6, 1]\nclass = not_buy"] ;
699 -> 701 ;
702 [label="duration <= 154.5\ngini = 0.5\nsamples = 2\nvalue = [1, 1]\nclass = not_buy"] ;
701 -> 702 ;
703 [label="gini = 0.0\nsamples = 1\nvalue = [1, 0]\nclass = not_buy"] ;
702 -> 703 ;
704 [label="gini = 0.0\nsamples = 1\nvalue = [0, 1]\nclass = buy"] ;
702 -> 704 ;
705 [label="gini = 0.0\nsamples = 5\nvalue = [5, 0]\nclass = not_buy"] ;
701 -> 705 ;
706 [label="balance <= 48.5\ngini = 0.072\nsamples = 457\nvalue = [440, 17]\nclass = not_buy"] ;
646 -> 706 ;
707 [label="balance <= 47.5\ngini = 0.079\nsamples = 412\nvalue = [395, 17]\nclass = not_buy"] ;
706 -> 707 ;
708 [label="balance <= 30.5\ngini = 0.075\nsamples = 408\nvalue = [392, 16]\nclass = not_buy"] ;
707 -> 708 ;
709 [label="balance <= 14.5\ngini = 0.068\nsamples = 368\nvalue = [355, 13]\nclass = not_buy"] ;
708 -> 709 ;
710 [label="balance <= 13.5\ngini = 0.078\nsamples = 320\nvalue = [307, 13]\nclass = not_buy"] ;
709 -> 710 ;
711 [label="duration <= 169.5\ngini = 0.073\nsamples = 316\nvalue = [304, 12]\nclass = not_buy"] ;
710 -> 711 ;
712 [label="gini = 0.0\nsamples = 47\nvalue = [47, 0]\nclass = not_buy"] ;
711 -> 712 ;
713 [label="duration <= 170.5\ngini = 0.085\nsamples = 269\nvalue = [257, 12]\nclass = not_buy"] ;
711 -> 713 ;
714 [label="balance <= 2.5\ngini = 0.32\nsamples = 5\nvalue = [4, 1]\nclass = not_buy"] ;
713 -> 714 ;
715 [label="gini = 0.0\nsamples = 3\nvalue = [3, 0]\nclass = not_buy"] ;
714 -> 715 ;
716 [label="balance <= 4.0\ngini = 0.5\nsamples = 2\nvalue = [1, 1]\nclass = not_buy"] ;
714 -> 716 ;
717 [label="gini = 0.0\nsamples = 1\nvalue = [0, 1]\nclass = buy"] ;
716 -> 717 ;
718 [label="gini = 0.0\nsamples = 1\nvalue = [1, 0]\nclass = not_buy"] ;
716 -> 718 ;
719 [label="balance <= 11.5\ngini = 0.08\nsamples = 264\nvalue = [253, 11]\nclass = not_buy"] ;
713 -> 719 ;
720 [label="duration <= 203.5\ngini = 0.075\nsamples = 258\nvalue = [248, 10]\nclass = not_buy"] ;
719 -> 720 ;
721 [label="duration <= 194.5\ngini = 0.069\nsamples = 250\nvalue = [241, 9]\nclass = not_buy"] ;
720 -> 721 ;
722 [label="duration <= 182.5\ngini = 0.091\nsamples = 189\nvalue = [180, 9]\nclass = not_buy"] ;
721 -> 722 ;
723 [label="duration <= 177.5\ngini = 0.058\nsamples = 101\nvalue = [98, 3]\nclass = not_buy"] ;
722 -> 723 ;
724 [label="duration <= 176.5\ngini = 0.089\nsamples = 64\nvalue = [61, 3]\nclass = not_buy"] ;
723 -> 724 ;
725 [label="balance <= 6.5\ngini = 0.065\nsamples = 59\nvalue = [57, 2]\nclass = not_buy"] ;
724 -> 725 ;
726 [label="duration <= 173.5\ngini = 0.038\nsamples = 51\nvalue = [50, 1]\nclass = not_buy"] ;
725 -> 726 ;
727 [label="gini = 0.0\nsamples = 23\nvalue = [23, 0]\nclass = not_buy"] ;
726 -> 727 ;
728 [label="duration <= 174.5\ngini = 0.069\nsamples = 28\nvalue = [27, 1]\nclass = not_buy"] ;
726 -> 728 ;
729 [label="balance <= 1.5\ngini = 0.153\nsamples = 12\nvalue = [11, 1]\nclass = not_buy"] ;
728 -> 729 ;
730 [label="gini = 0.198\nsamples = 9\nvalue = [8, 1]\nclass = not_buy"] ;
729 -> 730 ;
731 [label="gini = 0.0\nsamples = 3\nvalue = [3, 0]\nclass = not_buy"] ;
729 -> 731 ;
732 [label="gini = 0.0\nsamples = 16\nvalue = [16, 0]\nclass = not_buy"] ;
728 -> 732 ;
733 [label="duration <= 173.5\ngini = 0.219\nsamples = 8\nvalue = [7, 1]\nclass = not_buy"] ;
725 -> 733 ;
734 [label="duration <= 172.0\ngini = 0.444\nsamples = 3\nvalue = [2, 1]\nclass = not_buy"] ;
733 -> 734 ;
735 [label="gini = 0.0\nsamples = 2\nvalue = [2, 0]\nclass = not_buy"] ;
734 -> 735 ;
736 [label="gini = 0.0\nsamples = 1\nvalue = [0, 1]\nclass = buy"] ;
734 -> 736 ;
737 [label="gini = 0.0\nsamples = 5\nvalue = [5, 0]\nclass = not_buy"] ;
733 -> 737 ;
738 [label="balance <= 1.0\ngini = 0.32\nsamples = 5\nvalue = [4, 1]\nclass = not_buy"] ;
724 -> 738 ;
739 [label="gini = 0.444\nsamples = 3\nvalue = [2, 1]\nclass = not_buy"] ;
738 -> 739 ;
740 [label="gini = 0.0\nsamples = 2\nvalue = [2, 0]\nclass = not_buy"] ;
738 -> 740 ;
741 [label="gini = 0.0\nsamples = 37\nvalue = [37, 0]\nclass = not_buy"] ;
723 -> 741 ;
742 [label="balance <= 2.5\ngini = 0.127\nsamples = 88\nvalue = [82, 6]\nclass = not_buy"] ;
722 -> 742 ;
743 [label="balance <= 1.5\ngini = 0.147\nsamples = 75\nvalue = [69, 6]\nclass = not_buy"] ;
742 -> 743 ;
744 [label="duration <= 189.5\ngini = 0.129\nsamples = 72\nvalue = [67, 5]\nclass = not_buy"] ;
743 -> 744 ;
745 [label="duration <= 188.5\ngini = 0.18\nsamples = 50\nvalue = [45, 5]\nclass = not_buy"] ;
744 -> 745 ;
746 [label="duration <= 184.5\ngini = 0.139\nsamples = 40\nvalue = [37, 3]\nclass = not_buy"] ;
745 -> 746 ;
747 [label="balance <= 0.5\ngini = 0.208\nsamples = 17\nvalue = [15, 2]\nclass = not_buy"] ;
746 -> 747 ;
748 [label="duration <= 183.5\ngini = 0.219\nsamples = 16\nvalue = [14, 2]\nclass = not_buy"] ;
747 -> 748 ;
749 [label="gini = 0.245\nsamples = 7\nvalue = [6, 1]\nclass = not_buy"] ;
748 -> 749 ;
750 [label="gini = 0.198\nsamples = 9\nvalue = [8, 1]\nclass = not_buy"] ;
748 -> 750 ;
751 [label="gini = 0.0\nsamples = 1\nvalue = [1, 0]\nclass = not_buy"] ;
747 -> 751 ;
752 [label="duration <= 186.5\ngini = 0.083\nsamples = 23\nvalue = [22, 1]\nclass = not_buy"] ;
746 -> 752 ;
753 [label="gini = 0.0\nsamples = 10\nvalue = [10, 0]\nclass = not_buy"] ;
752 -> 753 ;
754 [label="duration <= 187.5\ngini = 0.142\nsamples = 13\nvalue = [12, 1]\nclass = not_buy"] ;
752 -> 754 ;
755 [label="gini = 0.219\nsamples = 8\nvalue = [7, 1]\nclass = not_buy"] ;
754 -> 755 ;
756 [label="gini = 0.0\nsamples = 5\nvalue = [5, 0]\nclass = not_buy"] ;
754 -> 756 ;
757 [label="balance <= 0.5\ngini = 0.32\nsamples = 10\nvalue = [8, 2]\nclass = not_buy"] ;
745 -> 757 ;
758 [label="gini = 0.375\nsamples = 8\nvalue = [6, 2]\nclass = not_buy"] ;
757 -> 758 ;
759 [label="gini = 0.0\nsamples = 2\nvalue = [2, 0]\nclass = not_buy"] ;
757 -> 759 ;
760 [label="gini = 0.0\nsamples = 22\nvalue = [22, 0]\nclass = not_buy"] ;
744 -> 760 ;
761 [label="duration <= 190.5\ngini = 0.444\nsamples = 3\nvalue = [2, 1]\nclass = not_buy"] ;
743 -> 761 ;
762 [label="gini = 0.0\nsamples = 2\nvalue = [2, 0]\nclass = not_buy"] ;
761 -> 762 ;
763 [label="gini = 0.0\nsamples = 1\nvalue = [0, 1]\nclass = buy"] ;
761 -> 763 ;
764 [label="gini = 0.0\nsamples = 13\nvalue = [13, 0]\nclass = not_buy"] ;
742 -> 764 ;
765 [label="gini = 0.0\nsamples = 61\nvalue = [61, 0]\nclass = not_buy"] ;
721 -> 765 ;
766 [label="duration <= 204.5\ngini = 0.219\nsamples = 8\nvalue = [7, 1]\nclass = not_buy"] ;
720 -> 766 ;
767 [label="gini = 0.278\nsamples = 6\nvalue = [5, 1]\nclass = not_buy"] ;
766 -> 767 ;
768 [label="gini = 0.0\nsamples = 2\nvalue = [2, 0]\nclass = not_buy"] ;
766 -> 768 ;
769 [label="duration <= 199.5\ngini = 0.278\nsamples = 6\nvalue = [5, 1]\nclass = not_buy"] ;
719 -> 769 ;
770 [label="gini = 0.0\nsamples = 4\nvalue = [4, 0]\nclass = not_buy"] ;
769 -> 770 ;
771 [label="balance <= 12.5\ngini = 0.5\nsamples = 2\nvalue = [1, 1]\nclass = not_buy"] ;
769 -> 771 ;
772 [label="gini = 0.0\nsamples = 1\nvalue = [0, 1]\nclass = buy"] ;
771 -> 772 ;
773 [label="gini = 0.0\nsamples = 1\nvalue = [1, 0]\nclass = not_buy"] ;
771 -> 773 ;
774 [label="duration <= 169.0\ngini = 0.375\nsamples = 4\nvalue = [3, 1]\nclass = not_buy"] ;
710 -> 774 ;
775 [label="gini = 0.0\nsamples = 1\nvalue = [0, 1]\nclass = buy"] ;
774 -> 775 ;
776 [label="gini = 0.0\nsamples = 3\nvalue = [3, 0]\nclass = not_buy"] ;
774 -> 776 ;
777 [label="gini = 0.0\nsamples = 48\nvalue = [48, 0]\nclass = not_buy"] ;
709 -> 777 ;
778 [label="balance <= 33.5\ngini = 0.139\nsamples = 40\nvalue = [37, 3]\nclass = not_buy"] ;
708 -> 778 ;
779 [label="duration <= 193.0\ngini = 0.408\nsamples = 7\nvalue = [5, 2]\nclass = not_buy"] ;
778 -> 779 ;
780 [label="duration <= 183.0\ngini = 0.5\nsamples = 4\nvalue = [2, 2]\nclass = not_buy"] ;
779 -> 780 ;
781 [label="gini = 0.0\nsamples = 2\nvalue = [2, 0]\nclass = not_buy"] ;
780 -> 781 ;
782 [label="gini = 0.0\nsamples = 2\nvalue = [0, 2]\nclass = buy"] ;
780 -> 782 ;
783 [label="gini = 0.0\nsamples = 3\nvalue = [3, 0]\nclass = not_buy"] ;
779 -> 783 ;
784 [label="balance <= 38.5\ngini = 0.059\nsamples = 33\nvalue = [32, 1]\nclass = not_buy"] ;
778 -> 784 ;
785 [label="duration <= 182.5\ngini = 0.198\nsamples = 9\nvalue = [8, 1]\nclass = not_buy"] ;
784 -> 785 ;
786 [label="gini = 0.0\nsamples = 1\nvalue = [0, 1]\nclass = buy"] ;
785 -> 786 ;
787 [label="gini = 0.0\nsamples = 8\nvalue = [8, 0]\nclass = not_buy"] ;
785 -> 787 ;
788 [label="gini = 0.0\nsamples = 24\nvalue = [24, 0]\nclass = not_buy"] ;
784 -> 788 ;
789 [label="duration <= 165.5\ngini = 0.375\nsamples = 4\nvalue = [3, 1]\nclass = not_buy"] ;
707 -> 789 ;
790 [label="gini = 0.0\nsamples = 2\nvalue = [2, 0]\nclass = not_buy"] ;
789 -> 790 ;
791 [label="duration <= 168.5\ngini = 0.5\nsamples = 2\nvalue = [1, 1]\nclass = not_buy"] ;
789 -> 791 ;
792 [label="gini = 0.0\nsamples = 1\nvalue = [0, 1]\nclass = buy"] ;
791 -> 792 ;
793 [label="gini = 0.0\nsamples = 1\nvalue = [1, 0]\nclass = not_buy"] ;
791 -> 793 ;
794 [label="gini = 0.0\nsamples = 45\nvalue = [45, 0]\nclass = not_buy"] ;
706 -> 794 ;
795 [label="duration <= 168.5\ngini = 0.118\nsamples = 2455\nvalue = [2300, 155]\nclass = not_buy"] ;
609 -> 795 ;
796 [label="balance <= 66.5\ngini = 0.101\nsamples = 1441\nvalue = [1364, 77]\nclass = not_buy"] ;
795 -> 796 ;
797 [label="duration <= 149.0\ngini = 0.444\nsamples = 3\nvalue = [2, 1]\nclass = not_buy"] ;
796 -> 797 ;
798 [label="gini = 0.0\nsamples = 2\nvalue = [2, 0]\nclass = not_buy"] ;
797 -> 798 ;
799 [label="gini = 0.0\nsamples = 1\nvalue = [0, 1]\nclass = buy"] ;
797 -> 799 ;
800 [label="balance <= 678.5\ngini = 0.1\nsamples = 1438\nvalue = [1362, 76]\nclass = not_buy"] ;
796 -> 800 ;
801 [label="balance <= 589.5\ngini = 0.093\nsamples = 1208\nvalue = [1149, 59]\nclass = not_buy"] ;
800 -> 801 ;
802 [label="balance <= 588.5\ngini = 0.101\nsamples = 1111\nvalue = [1052, 59]\nclass = not_buy"] ;
801 -> 802 ;
803 [label="balance <= 81.5\ngini = 0.099\nsamples = 1109\nvalue = [1051, 58]\nclass = not_buy"] ;
802 -> 803 ;
804 [label="balance <= 80.5\ngini = 0.156\nsamples = 47\nvalue = [43, 4]\nclass = not_buy"] ;
803 -> 804 ;
805 [label="duration <= 158.0\ngini = 0.091\nsamples = 42\nvalue = [40, 2]\nclass = not_buy"] ;
804 -> 805 ;
806 [label="gini = 0.0\nsamples = 31\nvalue = [31, 0]\nclass = not_buy"] ;
805 -> 806 ;
807 [label="duration <= 164.5\ngini = 0.298\nsamples = 11\nvalue = [9, 2]\nclass = not_buy"] ;
805 -> 807 ;
808 [label="balance <= 69.0\ngini = 0.48\nsamples = 5\nvalue = [3, 2]\nclass = not_buy"] ;
807 -> 808 ;
809 [label="gini = 0.0\nsamples = 2\nvalue = [2, 0]\nclass = not_buy"] ;
808 -> 809 ;
810 [label="duration <= 161.5\ngini = 0.444\nsamples = 3\nvalue = [1, 2]\nclass = buy"] ;
808 -> 810 ;
811 [label="gini = 0.0\nsamples = 1\nvalue = [0, 1]\nclass = buy"] ;
810 -> 811 ;
812 [label="gini = 0.5\nsamples = 2\nvalue = [1, 1]\nclass = not_buy"] ;
810 -> 812 ;
813 [label="gini = 0.0\nsamples = 6\nvalue = [6, 0]\nclass = not_buy"] ;
807 -> 813 ;
814 [label="duration <= 142.0\ngini = 0.48\nsamples = 5\nvalue = [3, 2]\nclass = not_buy"] ;
804 -> 814 ;
815 [label="gini = 0.0\nsamples = 2\nvalue = [2, 0]\nclass = not_buy"] ;
814 -> 815 ;
816 [label="duration <= 151.5\ngini = 0.444\nsamples = 3\nvalue = [1, 2]\nclass = buy"] ;
814 -> 816 ;
817 [label="gini = 0.0\nsamples = 1\nvalue = [0, 1]\nclass = buy"] ;
816 -> 817 ;
818 [label="duration <= 161.0\ngini = 0.5\nsamples = 2\nvalue = [1, 1]\nclass = not_buy"] ;
816 -> 818 ;
819 [label="gini = 0.0\nsamples = 1\nvalue = [1, 0]\nclass = not_buy"] ;
818 -> 819 ;
820 [label="gini = 0.0\nsamples = 1\nvalue = [0, 1]\nclass = buy"] ;
818 -> 820 ;
821 [label="duration <= 158.5\ngini = 0.097\nsamples = 1062\nvalue = [1008, 54]\nclass = not_buy"] ;
803 -> 821 ;
822 [label="duration <= 151.5\ngini = 0.106\nsamples = 856\nvalue = [808, 48]\nclass = not_buy"] ;
821 -> 822 ;
823 [label="balance <= 255.5\ngini = 0.096\nsamples = 696\nvalue = [661, 35]\nclass = not_buy"] ;
822 -> 823 ;
824 [label="balance <= 231.5\ngini = 0.117\nsamples = 289\nvalue = [271, 18]\nclass = not_buy"] ;
823 -> 824 ;
825 [label="duration <= 129.5\ngini = 0.085\nsamples = 248\nvalue = [237, 11]\nclass = not_buy"] ;
824 -> 825 ;
826 [label="balance <= 166.5\ngini = 0.219\nsamples = 40\nvalue = [35, 5]\nclass = not_buy"] ;
825 -> 826 ;
827 [label="balance <= 108.5\ngini = 0.147\nsamples = 25\nvalue = [23, 2]\nclass = not_buy"] ;
826 -> 827 ;
828 [label="balance <= 104.0\ngini = 0.278\nsamples = 12\nvalue = [10, 2]\nclass = not_buy"] ;
827 -> 828 ;
829 [label="duration <= 127.5\ngini = 0.165\nsamples = 11\nvalue = [10, 1]\nclass = not_buy"] ;
828 -> 829 ;
830 [label="gini = 0.0\nsamples = 8\nvalue = [8, 0]\nclass = not_buy"] ;
829 -> 830 ;
831 [label="balance <= 89.5\ngini = 0.444\nsamples = 3\nvalue = [2, 1]\nclass = not_buy"] ;
829 -> 831 ;
832 [label="gini = 0.0\nsamples = 2\nvalue = [2, 0]\nclass = not_buy"] ;
831 -> 832 ;
833 [label="gini = 0.0\nsamples = 1\nvalue = [0, 1]\nclass = buy"] ;
831 -> 833 ;
834 [label="gini = 0.0\nsamples = 1\nvalue = [0, 1]\nclass = buy"] ;
828 -> 834 ;
835 [label="gini = 0.0\nsamples = 13\nvalue = [13, 0]\nclass = not_buy"] ;
827 -> 835 ;
836 [label="balance <= 174.5\ngini = 0.32\nsamples = 15\nvalue = [12, 3]\nclass = not_buy"] ;
826 -> 836 ;
837 [label="gini = 0.0\nsamples = 1\nvalue = [0, 1]\nclass = buy"] ;
836 -> 837 ;
838 [label="balance <= 215.0\ngini = 0.245\nsamples = 14\nvalue = [12, 2]\nclass = not_buy"] ;
836 -> 838 ;
839 [label="balance <= 211.5\ngini = 0.346\nsamples = 9\nvalue = [7, 2]\nclass = not_buy"] ;
838 -> 839 ;
840 [label="balance <= 198.5\ngini = 0.219\nsamples = 8\nvalue = [7, 1]\nclass = not_buy"] ;
839 -> 840 ;
841 [label="balance <= 194.5\ngini = 0.375\nsamples = 4\nvalue = [3, 1]\nclass = not_buy"] ;
840 -> 841 ;
842 [label="gini = 0.0\nsamples = 3\nvalue = [3, 0]\nclass = not_buy"] ;
841 -> 842 ;
843 [label="gini = 0.0\nsamples = 1\nvalue = [0, 1]\nclass = buy"] ;
841 -> 843 ;
844 [label="gini = 0.0\nsamples = 4\nvalue = [4, 0]\nclass = not_buy"] ;
840 -> 844 ;
845 [label="gini = 0.0\nsamples = 1\nvalue = [0, 1]\nclass = buy"] ;
839 -> 845 ;
846 [label="gini = 0.0\nsamples = 5\nvalue = [5, 0]\nclass = not_buy"] ;
838 -> 846 ;
847 [label="duration <= 134.5\ngini = 0.056\nsamples = 208\nvalue = [202, 6]\nclass = not_buy"] ;
825 -> 847 ;
848 [label="gini = 0.0\nsamples = 41\nvalue = [41, 0]\nclass = not_buy"] ;
847 -> 848 ;
849 [label="duration <= 139.5\ngini = 0.069\nsamples = 167\nvalue = [161, 6]\nclass = not_buy"] ;
847 -> 849 ;
850 [label="duration <= 137.5\ngini = 0.111\nsamples = 51\nvalue = [48, 3]\nclass = not_buy"] ;
849 -> 850 ;
851 [label="balance <= 108.5\ngini = 0.064\nsamples = 30\nvalue = [29, 1]\nclass = not_buy"] ;
850 -> 851 ;
852 [label="balance <= 106.0\ngini = 0.198\nsamples = 9\nvalue = [8, 1]\nclass = not_buy"] ;
851 -> 852 ;
853 [label="gini = 0.0\nsamples = 8\nvalue = [8, 0]\nclass = not_buy"] ;
852 -> 853 ;
854 [label="gini = 0.0\nsamples = 1\nvalue = [0, 1]\nclass = buy"] ;
852 -> 854 ;
855 [label="gini = 0.0\nsamples = 21\nvalue = [21, 0]\nclass = not_buy"] ;
851 -> 855 ;
856 [label="balance <= 139.5\ngini = 0.172\nsamples = 21\nvalue = [19, 2]\nclass = not_buy"] ;
850 -> 856 ;
857 [label="balance <= 135.0\ngini = 0.32\nsamples = 5\nvalue = [4, 1]\nclass = not_buy"] ;
856 -> 857 ;
858 [label="gini = 0.0\nsamples = 4\nvalue = [4, 0]\nclass = not_buy"] ;
857 -> 858 ;
859 [label="gini = 0.0\nsamples = 1\nvalue = [0, 1]\nclass = buy"] ;
857 -> 859 ;
860 [label="balance <= 201.0\ngini = 0.117\nsamples = 16\nvalue = [15, 1]\nclass = not_buy"] ;
856 -> 860 ;
861 [label="gini = 0.0\nsamples = 10\nvalue = [10, 0]\nclass = not_buy"] ;
860 -> 861 ;
862 [label="balance <= 209.5\ngini = 0.278\nsamples = 6\nvalue = [5, 1]\nclass = not_buy"] ;
860 -> 862 ;
863 [label="gini = 0.0\nsamples = 1\nvalue = [0, 1]\nclass = buy"] ;
862 -> 863 ;
864 [label="gini = 0.0\nsamples = 5\nvalue = [5, 0]\nclass = not_buy"] ;
862 -> 864 ;
865 [label="balance <= 87.0\ngini = 0.05\nsamples = 116\nvalue = [113, 3]\nclass = not_buy"] ;
849 -> 865 ;
866 [label="balance <= 85.5\ngini = 0.219\nsamples = 8\nvalue = [7, 1]\nclass = not_buy"] ;
865 -> 866 ;
867 [label="gini = 0.0\nsamples = 6\nvalue = [6, 0]\nclass = not_buy"] ;
866 -> 867 ;
868 [label="duration <= 149.5\ngini = 0.5\nsamples = 2\nvalue = [1, 1]\nclass = not_buy"] ;
866 -> 868 ;
869 [label="gini = 0.0\nsamples = 1\nvalue = [0, 1]\nclass = buy"] ;
868 -> 869 ;
870 [label="gini = 0.0\nsamples = 1\nvalue = [1, 0]\nclass = not_buy"] ;
868 -> 870 ;
871 [label="balance <= 157.5\ngini = 0.036\nsamples = 108\nvalue = [106, 2]\nclass = not_buy"] ;
865 -> 871 ;
872 [label="gini = 0.0\nsamples = 50\nvalue = [50, 0]\nclass = not_buy"] ;
871 -> 872 ;
873 [label="balance <= 159.0\ngini = 0.067\nsamples = 58\nvalue = [56, 2]\nclass = not_buy"] ;
871 -> 873 ;
874 [label="gini = 0.0\nsamples = 1\nvalue = [0, 1]\nclass = buy"] ;
873 -> 874 ;
875 [label="balance <= 205.5\ngini = 0.034\nsamples = 57\nvalue = [56, 1]\nclass = not_buy"] ;
873 -> 875 ;
876 [label="gini = 0.0\nsamples = 39\nvalue = [39, 0]\nclass = not_buy"] ;
875 -> 876 ;
877 [label="balance <= 209.0\ngini = 0.105\nsamples = 18\nvalue = [17, 1]\nclass = not_buy"] ;
875 -> 877 ;
878 [label="duration <= 146.5\ngini = 0.444\nsamples = 3\nvalue = [2, 1]\nclass = not_buy"] ;
877 -> 878 ;
879 [label="gini = 0.0\nsamples = 2\nvalue = [2, 0]\nclass = not_buy"] ;
878 -> 879 ;
880 [label="gini = 0.0\nsamples = 1\nvalue = [0, 1]\nclass = buy"] ;
878 -> 880 ;
881 [label="gini = 0.0\nsamples = 15\nvalue = [15, 0]\nclass = not_buy"] ;
877 -> 881 ;
882 [label="balance <= 233.0\ngini = 0.283\nsamples = 41\nvalue = [34, 7]\nclass = not_buy"] ;
824 -> 882 ;
883 [label="gini = 0.0\nsamples = 1\nvalue = [0, 1]\nclass = buy"] ;
882 -> 883 ;
884 [label="duration <= 141.0\ngini = 0.255\nsamples = 40\nvalue = [34, 6]\nclass = not_buy"] ;
882 -> 884 ;
885 [label="balance <= 247.5\ngini = 0.159\nsamples = 23\nvalue = [21, 2]\nclass = not_buy"] ;
884 -> 885 ;
886 [label="balance <= 242.5\ngini = 0.231\nsamples = 15\nvalue = [13, 2]\nclass = not_buy"] ;
885 -> 886 ;
887 [label="gini = 0.0\nsamples = 6\nvalue = [6, 0]\nclass = not_buy"] ;
886 -> 887 ;
888 [label="duration <= 130.5\ngini = 0.346\nsamples = 9\nvalue = [7, 2]\nclass = not_buy"] ;
886 -> 888 ;
889 [label="gini = 0.0\nsamples = 3\nvalue = [3, 0]\nclass = not_buy"] ;
888 -> 889 ;
890 [label="balance <= 243.5\ngini = 0.444\nsamples = 6\nvalue = [4, 2]\nclass = not_buy"] ;
888 -> 890 ;
891 [label="gini = 0.0\nsamples = 1\nvalue = [0, 1]\nclass = buy"] ;
890 -> 891 ;
892 [label="balance <= 246.0\ngini = 0.32\nsamples = 5\nvalue = [4, 1]\nclass = not_buy"] ;
890 -> 892 ;
893 [label="gini = 0.0\nsamples = 3\nvalue = [3, 0]\nclass = not_buy"] ;
892 -> 893 ;
894 [label="duration <= 136.0\ngini = 0.5\nsamples = 2\nvalue = [1, 1]\nclass = not_buy"] ;
892 -> 894 ;
895 [label="gini = 0.0\nsamples = 1\nvalue = [1, 0]\nclass = not_buy"] ;
894 -> 895 ;
896 [label="gini = 0.0\nsamples = 1\nvalue = [0, 1]\nclass = buy"] ;
894 -> 896 ;
897 [label="gini = 0.0\nsamples = 8\nvalue = [8, 0]\nclass = not_buy"] ;
885 -> 897 ;
898 [label="duration <= 143.5\ngini = 0.36\nsamples = 17\nvalue = [13, 4]\nclass = not_buy"] ;
884 -> 898 ;
899 [label="balance <= 239.5\ngini = 0.375\nsamples = 4\nvalue = [1, 3]\nclass = buy"] ;
898 -> 899 ;
900 [label="gini = 0.0\nsamples = 1\nvalue = [1, 0]\nclass = not_buy"] ;
899 -> 900 ;
901 [label="gini = 0.0\nsamples = 3\nvalue = [0, 3]\nclass = buy"] ;
899 -> 901 ;
902 [label="balance <= 239.5\ngini = 0.142\nsamples = 13\nvalue = [12, 1]\nclass = not_buy"] ;
898 -> 902 ;
903 [label="balance <= 237.0\ngini = 0.5\nsamples = 2\nvalue = [1, 1]\nclass = not_buy"] ;
902 -> 903 ;
904 [label="gini = 0.0\nsamples = 1\nvalue = [1, 0]\nclass = not_buy"] ;
903 -> 904 ;
905 [label="gini = 0.0\nsamples = 1\nvalue = [0, 1]\nclass = buy"] ;
903 -> 905 ;
906 [label="gini = 0.0\nsamples = 11\nvalue = [11, 0]\nclass = not_buy"] ;
902 -> 906 ;
907 [label="balance <= 320.5\ngini = 0.08\nsamples = 407\nvalue = [390, 17]\nclass = not_buy"] ;
823 -> 907 ;
908 [label="gini = 0.0\nsamples = 101\nvalue = [101, 0]\nclass = not_buy"] ;
907 -> 908 ;
909 [label="balance <= 324.5\ngini = 0.105\nsamples = 306\nvalue = [289, 17]\nclass = not_buy"] ;
907 -> 909 ;
910 [label="balance <= 323.5\ngini = 0.408\nsamples = 7\nvalue = [5, 2]\nclass = not_buy"] ;
909 -> 910 ;
911 [label="duration <= 142.0\ngini = 0.278\nsamples = 6\nvalue = [5, 1]\nclass = not_buy"] ;
910 -> 911 ;
912 [label="gini = 0.0\nsamples = 3\nvalue = [3, 0]\nclass = not_buy"] ;
911 -> 912 ;
913 [label="balance <= 322.0\ngini = 0.444\nsamples = 3\nvalue = [2, 1]\nclass = not_buy"] ;
911 -> 913 ;
914 [label="gini = 0.0\nsamples = 1\nvalue = [0, 1]\nclass = buy"] ;
913 -> 914 ;
915 [label="gini = 0.0\nsamples = 2\nvalue = [2, 0]\nclass = not_buy"] ;
913 -> 915 ;
916 [label="gini = 0.0\nsamples = 1\nvalue = [0, 1]\nclass = buy"] ;
910 -> 916 ;
917 [label="duration <= 149.5\ngini = 0.095\nsamples = 299\nvalue = [284, 15]\nclass = not_buy"] ;
909 -> 917 ;
918 [label="balance <= 397.5\ngini = 0.084\nsamples = 273\nvalue = [261, 12]\nclass = not_buy"] ;
917 -> 918 ;
919 [label="balance <= 394.0\ngini = 0.131\nsamples = 71\nvalue = [66, 5]\nclass = not_buy"] ;
918 -> 919 ;
920 [label="duration <= 134.5\ngini = 0.083\nsamples = 69\nvalue = [66, 3]\nclass = not_buy"] ;
919 -> 920 ;
921 [label="duration <= 130.5\ngini = 0.175\nsamples = 31\nvalue = [28, 3]\nclass = not_buy"] ;
920 -> 921 ;
922 [label="gini = 0.0\nsamples = 16\nvalue = [16, 0]\nclass = not_buy"] ;
921 -> 922 ;
923 [label="duration <= 131.5\ngini = 0.32\nsamples = 15\nvalue = [12, 3]\nclass = not_buy"] ;
921 -> 923 ;
924 [label="gini = 0.0\nsamples = 1\nvalue = [0, 1]\nclass = buy"] ;
923 -> 924 ;
925 [label="balance <= 368.5\ngini = 0.245\nsamples = 14\nvalue = [12, 2]\nclass = not_buy"] ;
923 -> 925 ;
926 [label="duration <= 133.5\ngini = 0.142\nsamples = 13\nvalue = [12, 1]\nclass = not_buy"] ;
925 -> 926 ;
927 [label="gini = 0.0\nsamples = 8\nvalue = [8, 0]\nclass = not_buy"] ;
926 -> 927 ;
928 [label="balance <= 351.5\ngini = 0.32\nsamples = 5\nvalue = [4, 1]\nclass = not_buy"] ;
926 -> 928 ;
929 [label="balance <= 339.0\ngini = 0.5\nsamples = 2\nvalue = [1, 1]\nclass = not_buy"] ;
928 -> 929 ;
930 [label="gini = 0.0\nsamples = 1\nvalue = [1, 0]\nclass = not_buy"] ;
929 -> 930 ;
931 [label="gini = 0.0\nsamples = 1\nvalue = [0, 1]\nclass = buy"] ;
929 -> 931 ;
932 [label="gini = 0.0\nsamples = 3\nvalue = [3, 0]\nclass = not_buy"] ;
928 -> 932 ;
933 [label="gini = 0.0\nsamples = 1\nvalue = [0, 1]\nclass = buy"] ;
925 -> 933 ;
934 [label="gini = 0.0\nsamples = 38\nvalue = [38, 0]\nclass = not_buy"] ;
920 -> 934 ;
935 [label="gini = 0.0\nsamples = 2\nvalue = [0, 2]\nclass = buy"] ;
919 -> 935 ;
936 [label="duration <= 132.5\ngini = 0.067\nsamples = 202\nvalue = [195, 7]\nclass = not_buy"] ;
918 -> 936 ;
937 [label="gini = 0.0\nsamples = 62\nvalue = [62, 0]\nclass = not_buy"] ;
936 -> 937 ;
938 [label="balance <= 430.5\ngini = 0.095\nsamples = 140\nvalue = [133, 7]\nclass = not_buy"] ;
936 -> 938 ;
939 [label="gini = 0.0\nsamples = 35\nvalue = [35, 0]\nclass = not_buy"] ;
938 -> 939 ;
940 [label="balance <= 432.0\ngini = 0.124\nsamples = 105\nvalue = [98, 7]\nclass = not_buy"] ;
938 -> 940 ;
941 [label="gini = 0.0\nsamples = 1\nvalue = [0, 1]\nclass = buy"] ;
940 -> 941 ;
942 [label="balance <= 479.5\ngini = 0.109\nsamples = 104\nvalue = [98, 6]\nclass = not_buy"] ;
940 -> 942 ;
943 [label="balance <= 444.5\ngini = 0.049\nsamples = 40\nvalue = [39, 1]\nclass = not_buy"] ;
942 -> 943 ;
944 [label="balance <= 443.5\ngini = 0.133\nsamples = 14\nvalue = [13, 1]\nclass = not_buy"] ;
943 -> 944 ;
945 [label="gini = 0.0\nsamples = 13\nvalue = [13, 0]\nclass = not_buy"] ;
944 -> 945 ;
946 [label="gini = 0.0\nsamples = 1\nvalue = [0, 1]\nclass = buy"] ;
944 -> 946 ;
947 [label="gini = 0.0\nsamples = 26\nvalue = [26, 0]\nclass = not_buy"] ;
943 -> 947 ;
948 [label="balance <= 480.5\ngini = 0.144\nsamples = 64\nvalue = [59, 5]\nclass = not_buy"] ;
942 -> 948 ;
949 [label="gini = 0.0\nsamples = 1\nvalue = [0, 1]\nclass = buy"] ;
948 -> 949 ;
950 [label="balance <= 533.5\ngini = 0.119\nsamples = 63\nvalue = [59, 4]\nclass = not_buy"] ;
948 -> 950 ;
951 [label="balance <= 532.5\ngini = 0.175\nsamples = 31\nvalue = [28, 3]\nclass = not_buy"] ;
950 -> 951 ;
952 [label="balance <= 499.0\ngini = 0.124\nsamples = 30\nvalue = [28, 2]\nclass = not_buy"] ;
951 -> 952 ;
953 [label="gini = 0.0\nsamples = 11\nvalue = [11, 0]\nclass = not_buy"] ;
952 -> 953 ;
954 [label="balance <= 503.5\ngini = 0.188\nsamples = 19\nvalue = [17, 2]\nclass = not_buy"] ;
952 -> 954 ;
955 [label="gini = 0.0\nsamples = 1\nvalue = [0, 1]\nclass = buy"] ;
954 -> 955 ;
956 [label="duration <= 140.0\ngini = 0.105\nsamples = 18\nvalue = [17, 1]\nclass = not_buy"] ;
954 -> 956 ;
957 [label="gini = 0.0\nsamples = 11\nvalue = [11, 0]\nclass = not_buy"] ;
956 -> 957 ;
958 [label="duration <= 141.5\ngini = 0.245\nsamples = 7\nvalue = [6, 1]\nclass = not_buy"] ;
956 -> 958 ;
959 [label="balance <= 524.5\ngini = 0.5\nsamples = 2\nvalue = [1, 1]\nclass = not_buy"] ;
958 -> 959 ;
960 [label="gini = 0.0\nsamples = 1\nvalue = [0, 1]\nclass = buy"] ;
959 -> 960 ;
961 [label="gini = 0.0\nsamples = 1\nvalue = [1, 0]\nclass = not_buy"] ;
959 -> 961 ;
962 [label="gini = 0.0\nsamples = 5\nvalue = [5, 0]\nclass = not_buy"] ;
958 -> 962 ;
963 [label="gini = 0.0\nsamples = 1\nvalue = [0, 1]\nclass = buy"] ;
951 -> 963 ;
964 [label="duration <= 146.5\ngini = 0.061\nsamples = 32\nvalue = [31, 1]\nclass = not_buy"] ;
950 -> 964 ;
965 [label="gini = 0.0\nsamples = 21\nvalue = [21, 0]\nclass = not_buy"] ;
964 -> 965 ;
966 [label="balance <= 562.5\ngini = 0.165\nsamples = 11\nvalue = [10, 1]\nclass = not_buy"] ;
964 -> 966 ;
967 [label="gini = 0.0\nsamples = 8\nvalue = [8, 0]\nclass = not_buy"] ;
966 -> 967 ;
968 [label="balance <= 574.0\ngini = 0.444\nsamples = 3\nvalue = [2, 1]\nclass = not_buy"] ;
966 -> 968 ;
969 [label="gini = 0.0\nsamples = 1\nvalue = [0, 1]\nclass = buy"] ;
968 -> 969 ;
970 [label="gini = 0.0\nsamples = 2\nvalue = [2, 0]\nclass = not_buy"] ;
968 -> 970 ;
971 [label="balance <= 435.0\ngini = 0.204\nsamples = 26\nvalue = [23, 3]\nclass = not_buy"] ;
917 -> 971 ;
972 [label="gini = 0.0\nsamples = 13\nvalue = [13, 0]\nclass = not_buy"] ;
971 -> 972 ;
973 [label="balance <= 457.0\ngini = 0.355\nsamples = 13\nvalue = [10, 3]\nclass = not_buy"] ;
971 -> 973 ;
974 [label="gini = 0.0\nsamples = 2\nvalue = [0, 2]\nclass = buy"] ;
973 -> 974 ;
975 [label="balance <= 533.0\ngini = 0.165\nsamples = 11\nvalue = [10, 1]\nclass = not_buy"] ;
973 -> 975 ;
976 [label="gini = 0.0\nsamples = 8\nvalue = [8, 0]\nclass = not_buy"] ;
975 -> 976 ;
977 [label="duration <= 150.5\ngini = 0.444\nsamples = 3\nvalue = [2, 1]\nclass = not_buy"] ;
975 -> 977 ;
978 [label="gini = 0.0\nsamples = 1\nvalue = [0, 1]\nclass = buy"] ;
977 -> 978 ;
979 [label="gini = 0.0\nsamples = 2\nvalue = [2, 0]\nclass = not_buy"] ;
977 -> 979 ;
980 [label="balance <= 155.5\ngini = 0.149\nsamples = 160\nvalue = [147, 13]\nclass = not_buy"] ;
822 -> 980 ;
981 [label="balance <= 96.0\ngini = 0.048\nsamples = 41\nvalue = [40, 1]\nclass = not_buy"] ;
980 -> 981 ;
982 [label="duration <= 153.5\ngini = 0.278\nsamples = 6\nvalue = [5, 1]\nclass = not_buy"] ;
981 -> 982 ;
983 [label="gini = 0.0\nsamples = 1\nvalue = [0, 1]\nclass = buy"] ;
982 -> 983 ;
984 [label="gini = 0.0\nsamples = 5\nvalue = [5, 0]\nclass = not_buy"] ;
982 -> 984 ;
985 [label="gini = 0.0\nsamples = 35\nvalue = [35, 0]\nclass = not_buy"] ;
981 -> 985 ;
986 [label="balance <= 160.5\ngini = 0.181\nsamples = 119\nvalue = [107, 12]\nclass = not_buy"] ;
980 -> 986 ;
987 [label="duration <= 155.5\ngini = 0.444\nsamples = 3\nvalue = [1, 2]\nclass = buy"] ;
986 -> 987 ;
988 [label="gini = 0.0\nsamples = 1\nvalue = [0, 1]\nclass = buy"] ;
987 -> 988 ;
989 [label="duration <= 157.0\ngini = 0.5\nsamples = 2\nvalue = [1, 1]\nclass = not_buy"] ;
987 -> 989 ;
990 [label="gini = 0.0\nsamples = 1\nvalue = [1, 0]\nclass = not_buy"] ;
989 -> 990 ;
991 [label="gini = 0.0\nsamples = 1\nvalue = [0, 1]\nclass = buy"] ;
989 -> 991 ;
992 [label="balance <= 186.5\ngini = 0.158\nsamples = 116\nvalue = [106, 10]\nclass = not_buy"] ;
986 -> 992 ;
993 [label="balance <= 178.5\ngini = 0.375\nsamples = 8\nvalue = [6, 2]\nclass = not_buy"] ;
992 -> 993 ;
994 [label="gini = 0.0\nsamples = 6\nvalue = [6, 0]\nclass = not_buy"] ;
993 -> 994 ;
995 [label="gini = 0.0\nsamples = 2\nvalue = [0, 2]\nclass = buy"] ;
993 -> 995 ;
996 [label="balance <= 310.0\ngini = 0.137\nsamples = 108\nvalue = [100, 8]\nclass = not_buy"] ;
992 -> 996 ;
997 [label="duration <= 156.5\ngini = 0.051\nsamples = 38\nvalue = [37, 1]\nclass = not_buy"] ;
996 -> 997 ;
998 [label="gini = 0.0\nsamples = 27\nvalue = [27, 0]\nclass = not_buy"] ;
997 -> 998 ;
999 [label="balance <= 224.0\ngini = 0.165\nsamples = 11\nvalue = [10, 1]\nclass = not_buy"] ;
997 -> 999 ;
1000 [label="balance <= 219.0\ngini = 0.444\nsamples = 3\nvalue = [2, 1]\nclass = not_buy"] ;
999 -> 1000 ;
1001 [label="gini = 0.0\nsamples = 2\nvalue = [2, 0]\nclass = not_buy"] ;
1000 -> 1001 ;
1002 [label="gini = 0.0\nsamples = 1\nvalue = [0, 1]\nclass = buy"] ;
1000 -> 1002 ;
1003 [label="gini = 0.0\nsamples = 8\nvalue = [8, 0]\nclass = not_buy"] ;
999 -> 1003 ;
1004 [label="balance <= 319.5\ngini = 0.18\nsamples = 70\nvalue = [63, 7]\nclass = not_buy"] ;
996 -> 1004 ;
1005 [label="duration <= 155.5\ngini = 0.375\nsamples = 4\nvalue = [1, 3]\nclass = buy"] ;
1004 -> 1005 ;
1006 [label="balance <= 314.0\ngini = 0.5\nsamples = 2\nvalue = [1, 1]\nclass = not_buy"] ;
1005 -> 1006 ;
1007 [label="gini = 0.0\nsamples = 1\nvalue = [1, 0]\nclass = not_buy"] ;
1006 -> 1007 ;
1008 [label="gini = 0.0\nsamples = 1\nvalue = [0, 1]\nclass = buy"] ;
1006 -> 1008 ;
1009 [label="gini = 0.0\nsamples = 2\nvalue = [0, 2]\nclass = buy"] ;
1005 -> 1009 ;
1010 [label="duration <= 154.5\ngini = 0.114\nsamples = 66\nvalue = [62, 4]\nclass = not_buy"] ;
1004 -> 1010 ;
1011 [label="balance <= 388.0\ngini = 0.245\nsamples = 21\nvalue = [18, 3]\nclass = not_buy"] ;
1010 -> 1011 ;
1012 [label="balance <= 363.5\ngini = 0.444\nsamples = 3\nvalue = [1, 2]\nclass = buy"] ;
1011 -> 1012 ;
1013 [label="gini = 0.0\nsamples = 1\nvalue = [1, 0]\nclass = not_buy"] ;
1012 -> 1013 ;
1014 [label="gini = 0.0\nsamples = 2\nvalue = [0, 2]\nclass = buy"] ;
1012 -> 1014 ;
1015 [label="balance <= 516.5\ngini = 0.105\nsamples = 18\nvalue = [17, 1]\nclass = not_buy"] ;
1011 -> 1015 ;
1016 [label="gini = 0.0\nsamples = 13\nvalue = [13, 0]\nclass = not_buy"] ;
1015 -> 1016 ;
1017 [label="balance <= 531.5\ngini = 0.32\nsamples = 5\nvalue = [4, 1]\nclass = not_buy"] ;
1015 -> 1017 ;
1018 [label="gini = 0.0\nsamples = 1\nvalue = [0, 1]\nclass = buy"] ;
1017 -> 1018 ;
1019 [label="gini = 0.0\nsamples = 4\nvalue = [4, 0]\nclass = not_buy"] ;
1017 -> 1019 ;
1020 [label="balance <= 573.0\ngini = 0.043\nsamples = 45\nvalue = [44, 1]\nclass = not_buy"] ;
1010 -> 1020 ;
1021 [label="gini = 0.0\nsamples = 39\nvalue = [39, 0]\nclass = not_buy"] ;
1020 -> 1021 ;
1022 [label="balance <= 576.5\ngini = 0.278\nsamples = 6\nvalue = [5, 1]\nclass = not_buy"] ;
1020 -> 1022 ;
1023 [label="duration <= 157.0\ngini = 0.5\nsamples = 2\nvalue = [1, 1]\nclass = not_buy"] ;
1022 -> 1023 ;
1024 [label="gini = 0.0\nsamples = 1\nvalue = [0, 1]\nclass = buy"] ;
1023 -> 1024 ;
1025 [label="gini = 0.0\nsamples = 1\nvalue = [1, 0]\nclass = not_buy"] ;
1023 -> 1025 ;
1026 [label="gini = 0.0\nsamples = 4\nvalue = [4, 0]\nclass = not_buy"] ;
1022 -> 1026 ;
1027 [label="duration <= 160.5\ngini = 0.057\nsamples = 206\nvalue = [200, 6]\nclass = not_buy"] ;
821 -> 1027 ;
1028 [label="gini = 0.0\nsamples = 46\nvalue = [46, 0]\nclass = not_buy"] ;
1027 -> 1028 ;
1029 [label="balance <= 308.5\ngini = 0.072\nsamples = 160\nvalue = [154, 6]\nclass = not_buy"] ;
1027 -> 1029 ;
1030 [label="duration <= 163.5\ngini = 0.042\nsamples = 93\nvalue = [91, 2]\nclass = not_buy"] ;
1029 -> 1030 ;
1031 [label="balance <= 193.5\ngini = 0.1\nsamples = 38\nvalue = [36, 2]\nclass = not_buy"] ;
1030 -> 1031 ;
1032 [label="balance <= 146.0\ngini = 0.231\nsamples = 15\nvalue = [13, 2]\nclass = not_buy"] ;
1031 -> 1032 ;
1033 [label="gini = 0.0\nsamples = 12\nvalue = [12, 0]\nclass = not_buy"] ;
